{"learner":{"attributes":{"scikit_learn":"{\"_estimator_type\": \"classifier\"}"},"feature_names":["air_temp_k","process_temp_k","rotational_speed_rpm","torque_nm","tool_wear_min","Type_L","Type_M","temp_diff","power_w","torque_x_wear","rpm_x_wear","power_x_wear","overstrain_score","heat_diss_flag","power_oor"],"feature_types":["float","float","int","float","int","i","i","float","float","float","int","float","float","int","int"],"gradient_booster":{"model":{"cats":{"enc":[],"feature_segments":[],"sorted_idx":[]},"gbtree_model_param":{"num_parallel_tree":"1","num_trees":"400"},"iteration_indptr":[0,1,2,3,4,5,6,7,8,9,10,11,12,13,14,15,16,17,18,19,20,21,22,23,24,25,26,27,28,29,30,31,32,33,34,35,36,37,38,39,40,41,42,43,44,45,46,47,48,49,50,51,52,53,54,55,56,57,58,59,60,61,62,63,64,65,66,67,68,69,70,71,72,73,74,75,76,77,78,79,80,81,82,83,84,85,86,87,88,89,90,91,92,93,94,95,96,97,98,99,100,101,102,103,104,105,106,107,108,109,110,111,112,113,114,115,116,117,118,119,120,121,122,123,124,125,126,127,128,129,130,131,132,133,134,135,136,137,138,139,140,141,142,143,144,145,146,147,148,149,150,151,152,153,154,155,156,157,158,159,160,161,162,163,164,165,166,167,168,169,170,171,172,173,174,175,176,177,178,179,180,181,182,183,184,185,186,187,188,189,190,191,192,193,194,195,196,197,198,199,200,201,202,203,204,205,206,207,208,209,210,211,212,213,214,215,216,217,218,219,220,221,222,223,224,225,226,227,228,229,230,231,232,233,234,235,236,237,238,239,240,241,242,243,244,245,246,247,248,249,250,251,252,253,254,255,256,257,258,259,260,261,262,263,264,265,266,267,268,269,270,271,272,273,274,275,276,277,278,279,280,281,282,283,284,285,286,287,288,289,290,291,292,293,294,295,296,297,298,299,300,301,302,303,304,305,306,307,308,309,310,311,312,313,314,315,316,317,318,319,320,321,322,323,324,325,326,327,328,329,330,331,332,333,334,335,336,337,338,339,340,341,342,343,344,345,346,347,348,349,350,351,352,353,354,355,356,357,358,359,360,361,362,363,364,365,366,367,368,369,370,371,372,373,374,375,376,377,378,379,380,381,382,383,384,385,386,387,388,389,390,391,392,393,394,395,396,397,398,399,400],"tree_info":[0,0,0,0,0,0,0,0,0,0,0,0,0,0,0,0,0,0,0,0,0,0,0,0,0,0,0,0,0,0,0,0,0,0,0,0,0,0,0,0,0,0,0,0,0,0,0,0,0,0,0,0,0,0,0,0,0,0,0,0,0,0,0,0,0,0,0,0,0,0,0,0,0,0,0,0,0,0,0,0,0,0,0,0,0,0,0,0,0,0,0,0,0,0,0,0,0,0,0,0,0,0,0,0,0,0,0,0,0,0,0,0,0,0,0,0,0,0,0,0,0,0,0,0,0,0,0,0,0,0,0,0,0,0,0,0,0,0,0,0,0,0,0,0,0,0,0,0,0,0,0,0,0,0,0,0,0,0,0,0,0,0,0,0,0,0,0,0,0,0,0,0,0,0,0,0,0,0,0,0,0,0,0,0,0,0,0,0,0,0,0,0,0,0,0,0,0,0,0,0,0,0,0,0,0,0,0,0,0,0,0,0,0,0,0,0,0,0,0,0,0,0,0,0,0,0,0,0,0,0,0,0,0,0,0,0,0,0,0,0,0,0,0,0,0,0,0,0,0,0,0,0,0,0,0,0,0,0,0,0,0,0,0,0,0,0,0,0,0,0,0,0,0,0,0,0,0,0,0,0,0,0,0,0,0,0,0,0,0,0,0,0,0,0,0,0,0,0,0,0,0,0,0,0,0,0,0,0,0,0,0,0,0,0,0,0,0,0,0,0,0,0,0,0,0,0,0,0,0,0,0,0,0,0,0,0,0,0,0,0,0,0,0,0,0,0,0,0,0,0,0,0,0,0,0,0,0,0,0,0,0,0,0,0,0,0,0,0,0,0,0,0,0,0,0,0,0,0,0,0,0,0,0,0,0,0,0,0,0,0,0,0,0,0,0,0,0,0,0,0],"trees":[{"base_weights":[8.868745E-3,1.366816E0,-8.129077E-1,9.917745E-2,9.138185E-1,-1.2556748E0,9.967946E-2,-2.0875666E-1,1.9008883E0,-1.9147702E0,1.0477383E0,-1.704254E0,9.930461E-2,1.4607247E0,9.80772E-2,-1.9351671E0,7.684437E-2,7.2566104E-1,1.8570911E0,-9.1983326E-2,5.4463E-2,-8.257716E-2,9.119714E-2,-9.867487E-2,-8.37317E-2,3.9863702E-2,-8.784524E-2,5.4463E-2,9.564736E-2],"categories":[],"categories_nodes":[],"categories_segments":[],"categories_sizes":[],"default_left":[0,0,0,0,0,0,0,0,0,0,0,0,0,0,0,0,0,0,0,0,0,0,0,0,0,0,0,0,0],"id":0,"left_children":[1,3,5,-1,7,9,-1,11,13,15,17,19,-1,21,-1,23,-1,25,27,-1,-1,-1,-1,-1,-1,-1,-1,-1,-1],"loss_changes":[3.660566E3,3.4369385E2,2.5419229E3,0E0,7.9249133E2,2.6826863E3,0E0,1.104191E3,7.293091E0,9.965527E1,1.012236E2,7.7658936E1,0E0,5.953141E1,0E0,1.033252E1,0E0,5.173401E1,2.6926575E0,0E0,0E0,0E0,0E0,0E0,0E0,0E0,0E0,0E0,0E0],"parents":[2147483647,0,0,1,1,2,2,4,4,5,5,7,7,8,8,9,9,10,10,11,11,13,13,15,15,17,17,18,18],"right_children":[2,4,6,-1,8,10,-1,12,14,16,18,20,-1,22,-1,24,-1,26,28,-1,-1,-1,-1,-1,-1,-1,-1,-1,-1],"split_conditions":[1.382E3,8.7E0,1E0,9.917745E-2,1.05549E4,2.02E2,9.967946E-2,1E0,1.1076E4,1.0783E4,1.6000408E6,2.07E2,9.930461E-2,8.0834434E3,9.80772E-2,4.77E1,7.684437E-2,7.148003E3,1E0,-9.1983326E-2,5.4463E-2,-8.257716E-2,9.119714E-2,-9.867487E-2,-8.37317E-2,3.9863702E-2,-8.784524E-2,5.4463E-2,9.564736E-2],"split_indices":[2,7,14,0,9,4,0,14,9,9,11,4,0,8,0,3,0,8,5,0,0,0,0,0,0,0,0,0,0],"split_type":[0,0,0,0,0,0,0,0,0,0,0,0,0,0,0,0,0,0,0,0,0,0,0,0,0,0,0,0,0],"sum_hessian":[3.2782896E3,1.235696E3,2.0425934E3,5.21848E2,7.13848E2,1.7647328E3,2.778606E2,3.3436722E2,3.7948077E2,1.3722484E3,3.9248447E2,1.9899924E2,1.3536798E2,4.8997784E1,3.30483E2,1.3646238E3,7.6246305E0,2.8211502E2,1.1036945E2,1.901246E2,8.87463E0,4.7499995E0,4.4247784E1,1.1838745E3,1.8074924E2,2.7486502E2,7.249999E0,8.87463E0,1.0149483E2],"tree_param":{"num_deleted":"0","num_feature":"15","num_nodes":"29","size_leaf_vector":"1"}},{"base_weights":[8.889074E-3,1.3036708E0,-8.1451017E-1,8.9489055E-1,9.513035E-2,-1.220961E0,1.1264459E0,-6.0740626E-1,1.4582396E0,9.278402E-2,-1.527553E0,8.844043E-1,9.223228E-2,-1.7123061E0,9.163001E-2,1.0481881E0,9.411599E-2,-1.78612E0,1.582586E0,6.9598055E-1,1.5774182E0,-9.496517E-2,2.4458032E-2,-7.350894E-2,9.1771595E-2,-9.0168945E-2,-2.4694964E-2,3.7911523E-2,9.309313E-2,4.4985443E-2,-9.5411144E-2,8.561858E-2,-6.798716E-2],"categories":[],"categories_nodes":[],"categories_segments":[],"categories_sizes":[],"default_left":[0,0,0,0,0,0,0,0,0,0,0,0,0,0,0,0,0,0,0,0,0,0,0,0,0,0,0,0,0,0,0,0,0],"id":1,"left_children":[1,3,5,7,-1,9,11,13,15,-1,17,19,-1,21,-1,23,-1,25,27,29,31,-1,-1,-1,-1,-1,-1,-1,-1,-1,-1,-1,-1],"loss_changes":[3.5206313E3,3.1258716E2,1.5938486E3,6.4819055E2,0E0,1.5776809E3,5.921698E1,5.673969E2,9.480835E1,0E0,1.2242205E3,3.333966E1,0E0,6.0447845E1,0E0,5.6815137E2,0E0,3.0392578E1,2.5549011E1,1.12675896E2,2.4361862E1,0E0,0E0,0E0,0E0,0E0,0E0,0E0,0E0,0E0,0E0,0E0,0E0],"parents":[2147483647,0,0,1,1,2,2,3,3,5,5,6,6,7,7,8,8,10,10,11,11,13,13,15,15,17,17,18,18,19,19,20,20],"right_children":[2,4,6,8,-1,10,12,14,16,-1,18,20,-1,22,-1,24,-1,26,28,30,32,-1,-1,-1,-1,-1,-1,-1,-1,-1,-1,-1,-1],"split_conditions":[1.382E3,1E0,2.05E2,7.705698E3,9.513035E-2,3.5364385E3,1.6484411E6,1.0069091E0,8.969059E3,9.278402E-2,5.67E1,3.8981E5,9.223228E-2,2.07E2,9.163001E-2,9.802727E-1,9.411599E-2,2.03E2,8.969059E3,1.616E3,3.008E2,-9.496517E-2,2.4458032E-2,-7.350894E-2,9.1771595E-2,-9.0168945E-2,-2.4694964E-2,3.7911523E-2,9.309313E-2,4.4985443E-2,-9.5411144E-2,8.561858E-2,-6.798716E-2],"split_indices":[2,13,4,8,0,8,11,12,8,0,3,10,0,4,0,12,0,4,8,2,0,0,0,0,0,0,0,0,0,0,0,0,0],"split_type":[0,0,0,0,0,0,0,0,0,0,0,0,0,0,0,0,0,0,0,0,0,0,0,0,0,0,0,0,0,0,0,0,0],"sum_hessian":[3.3002812E3,1.2826897E3,2.0175916E3,7.638488E2,5.188408E2,1.6685546E3,3.4903696E2,2.0829776E2,5.555511E2,1.5074817E2,1.5178064E3,2.6272653E2,8.631044E1,1.4357942E2,6.471834E1,2.8421228E2,2.7133878E2,1.4016992E3,1.1610713E2,2.0813965E2,5.458687E1,1.3246483E2,1.1114588E1,6.747964E1,2.1673264E2,1.3828346E3,1.8864586E1,3.032124E1,8.57859E1,1.9364519E2,1.4494459E1,5.2587635E1,1.9992357E0],"tree_param":{"num_deleted":"0","num_feature":"15","num_nodes":"33","size_leaf_vector":"1"}},{"base_weights":[-9.022134E-3,1.1976575E0,-7.7398384E-1,7.9987913E-1,9.1014795E-2,-1.133717E0,9.111739E-2,-1.0116529E-1,1.731299E0,-1.7251636E0,9.848831E-1,-1.4701821E0,9.067971E-2,1.2329724E0,8.946633E-2,-1.7441663E0,8.293481E-2,7.457472E-1,1.6774616E0,-8.462454E-2,5.0127167E-2,-8.006743E-2,8.2586594E-2,-7.5232826E-2,-9.0024464E-2,-3.749705E-2,4.4207435E-2,4.1442562E-2,8.792969E-2],"categories":[],"categories_nodes":[],"categories_segments":[],"categories_sizes":[],"default_left":[0,0,0,0,0,0,0,0,0,0,0,0,0,0,0,0,0,0,0,0,0,0,0,0,0,0,0,0,0],"id":2,"left_children":[1,3,5,7,-1,9,-1,11,13,15,17,19,-1,21,-1,23,-1,25,27,-1,-1,-1,-1,-1,-1,-1,-1,-1,-1],"loss_changes":[2.9832795E3,3.09109E2,1.8494844E3,6.4380566E2,0E0,2.1793572E3,0E0,1.0269712E3,8.699829E0,9.027783E1,6.167157E1,1.2725076E2,0E0,5.3151398E1,0E0,1.5527832E1,0E0,5.949591E1,5.2008667E0,0E0,0E0,0E0,0E0,0E0,0E0,0E0,0E0,0E0,0E0],"parents":[2147483647,0,0,1,1,2,2,3,3,5,5,7,7,8,8,9,9,10,10,11,11,13,13,15,15,17,17,18,18],"right_children":[2,4,6,8,-1,10,-1,12,14,16,18,20,-1,22,-1,24,-1,26,28,-1,-1,-1,-1,-1,-1,-1,-1,-1,-1],"split_conditions":[1.386E3,1E0,1E0,9.595364E-1,9.1014795E-2,2.02E2,9.111739E-2,1E0,1.0069091E0,1.0069091E0,9.595364E-1,2.03E2,9.067971E-2,8.0834434E3,8.946633E-2,1.44E3,8.293481E-2,2.05E2,1E0,-8.462454E-2,5.0127167E-2,-8.006743E-2,8.2586594E-2,-7.5232826E-2,-9.0024464E-2,-3.749705E-2,4.4207435E-2,4.1442562E-2,8.792969E-2],"split_indices":[2,13,14,12,0,4,0,14,12,12,12,4,0,8,0,2,0,4,5,0,0,0,0,0,0,0,0,0,0],"split_type":[0,0,0,0,0,0,0,0,0,0,0,0,0,0,0,0,0,0,0,0,0,0,0,0,0,0,0,0,0],"sum_hessian":[3.2299282E3,1.2529352E3,1.976993E3,7.6591077E2,4.870244E2,1.7369011E3,2.4009187E2,3.8975647E2,3.761543E2,1.3579811E3,3.7892004E2,2.2740115E2,1.6235533E2,4.155325E1,3.3460104E2,1.3508796E3,7.1015368E0,2.8320932E2,9.571071E1,2.0893274E2,1.8468405E1,4.9854984E0,3.656775E1,2.624675E2,1.0884121E3,2.3612558E1,2.5959677E2,9.330759E0,8.637995E1],"tree_param":{"num_deleted":"0","num_feature":"15","num_nodes":"29","size_leaf_vector":"1"}},{"base_weights":[-5.2188534E-2,1.1172799E0,-7.675633E-1,1.71562E0,6.8848604E-1,-1.1203979E0,8.751665E-2,8.649913E-2,-6.2047016E-2,-2.7102655E-1,1.6517454E0,-1.5381745E0,3.657695E-1,-1.5204532E0,8.7007575E-2,1.0668567E0,8.562619E-2,-1.55643E0,6.819697E-2,-2.097973E-1,1.6073381E0,-8.794322E-2,-1.2530363E-2,-7.550787E-2,7.5698145E-2,-8.010384E-2,-4.6123948E-2,3.908203E-2,-6.915598E-2,3.0393938E-2,8.471475E-2],"categories":[],"categories_nodes":[],"categories_segments":[],"categories_sizes":[],"default_left":[0,0,0,0,0,0,0,0,0,0,0,0,0,0,0,0,0,0,0,0,0,0,0,0,0,0,0,0,0,0,0],"id":3,"left_children":[1,3,5,7,9,11,-1,-1,-1,13,15,17,19,21,-1,23,-1,25,-1,27,29,-1,-1,-1,-1,-1,-1,-1,-1,-1,-1],"loss_changes":[2.6131025E3,3.029746E2,1.7236196E3,2.3133667E1,6.402759E2,1.0562878E3,0E0,0E0,0E0,8.76262E2,1.0458618E1,7.245044E1,2.6753616E2,6.4642395E1,0E0,4.2825638E1,0E0,3.6708496E1,0E0,2.9930032E2,9.273193E0,0E0,0E0,0E0,0E0,0E0,0E0,0E0,0E0,0E0,0E0],"parents":[2147483647,0,0,1,1,2,2,3,3,4,4,5,5,9,9,10,10,11,11,12,12,13,13,15,15,17,17,19,19,20,20],"right_children":[2,4,6,8,10,12,-1,-1,-1,14,16,18,20,22,-1,24,-1,26,-1,28,30,-1,-1,-1,-1,-1,-1,-1,-1,-1,-1],"split_conditions":[1.386E3,8.7E0,1E0,1.378E3,1.05549E4,1.1845476E6,8.751665E-2,8.649913E-2,-6.2047016E-2,1E0,1.1076E4,3.044E2,1.05549E4,9.1908E3,8.7007575E-2,8.0834434E3,8.562619E-2,1.1050316E6,6.819697E-2,6.4034873E3,1E0,-8.794322E-2,-1.2530363E-2,-7.550787E-2,7.5698145E-2,-8.010384E-2,-4.6123948E-2,3.908203E-2,-6.915598E-2,3.0393938E-2,8.471475E-2],"split_indices":[2,7,14,2,9,11,0,0,0,14,9,0,9,9,0,8,0,11,0,8,5,0,0,0,0,0,0,0,0,0,0],"split_type":[0,0,0,0,0,0,0,0,0,0,0,0,0,0,0,0,0,0,0,0,0,0,0,0,0,0,0,0,0,0,0],"sum_hessian":[3.1214233E3,1.184494E3,1.9369293E3,4.9323355E2,6.912605E2,1.6993528E3,2.3757655E2,4.9126193E2,1.9716167E0,3.4666376E2,3.4459674E2,1.3264418E3,3.7291104E2,2.1397665E2,1.3268712E2,3.41843E1,3.104124E2,1.3186108E3,7.8309226E0,2.553615E2,1.17549545E2,1.7982901E2,3.4147644E1,4.702511E0,2.9481787E1,1.2286189E3,8.999193E1,1.385895E2,1.16772E2,1.0048237E1,1.0750131E2],"tree_param":{"num_deleted":"0","num_feature":"15","num_nodes":"31","size_leaf_vector":"1"}},{"base_weights":[1.2694681E-2,-7.559638E-1,8.935787E-1,-1.0185496E0,8.428257E-2,1.576661E0,5.5642325E-1,-1.4429778E0,8.2997E-1,8.392558E-2,1.5197335E0,-2.4530993E-1,1.5452324E0,2.4015193E-1,-1.586688E0,6.483135E-1,1.4795604E0,-7.62446E-2,7.982717E-2,-1.46065E0,8.4128045E-2,-6.6906184E-2,1.5625929E0,-8.25883E-2,6.1482556E-2,-4.2164944E-2,-8.115741E-2,4.295407E-2,-9.700733E-2,-6.93815E-2,8.110144E-2,-8.050917E-2,-3.6839373E-2,4.2927157E-2,8.1181884E-2],"categories":[],"categories_nodes":[],"categories_segments":[],"categories_sizes":[],"default_left":[0,0,0,0,0,0,0,0,0,0,0,0,0,0,0,0,0,0,0,0,0,0,0,0,0,0,0,0,0,0,0,0,0,0,0],"id":4,"left_children":[1,3,5,7,-1,9,11,13,15,-1,17,19,21,23,25,27,29,-1,-1,31,-1,-1,33,-1,-1,-1,-1,-1,-1,-1,-1,-1,-1,-1,-1],"loss_changes":[2.1682532E3,1.0981036E3,3.4278284E2,1.213071E3,0E0,3.050537E-1,7.93631E2,3.0432568E2,3.3151367E1,0E0,7.879883E1,1.2991891E3,2.452478E1,1.8870935E2,3.0014404E1,1.2587847E2,2.7736649E1,0E0,0E0,3.5614502E1,0E0,0E0,1.7772583E1,0E0,0E0,0E0,0E0,0E0,0E0,0E0,0E0,0E0,0E0,0E0,0E0],"parents":[2147483647,0,0,1,1,2,2,3,3,5,5,6,6,7,7,8,8,10,10,11,11,12,12,13,13,14,14,15,15,16,16,19,19,22,22],"right_children":[2,4,6,8,-1,10,12,14,16,-1,18,20,22,24,26,28,30,-1,-1,32,-1,-1,34,-1,-1,-1,-1,-1,-1,-1,-1,-1,-1,-1,-1],"split_conditions":[4.73E1,1E0,8.7E0,2.03E2,8.428257E-2,7.122828E3,9.354182E-1,8.3E0,4.51E1,8.392558E-2,5.07E1,1E0,7.122828E3,4.17E1,8.7E0,4.14E1,3.095E2,-7.62446E-2,7.982717E-2,3.019E2,8.4128045E-2,-6.6906184E-2,9.802727E-1,-8.25883E-2,6.1482556E-2,-4.2164944E-2,-8.115741E-2,4.295407E-2,-9.700733E-2,-6.93815E-2,8.110144E-2,-8.050917E-2,-3.6839373E-2,4.2927157E-2,8.1181884E-2],"split_indices":[3,14,7,4,0,8,12,7,3,0,3,14,8,3,7,3,1,0,0,0,0,0,12,0,0,0,0,0,0,0,0,0,0,0,0],"split_type":[0,0,0,0,0,0,0,0,0,0,0,0,0,0,0,0,0,0,0,0,0,0,0,0,0,0,0,0,0,0,0,0,0,0,0],"sum_hessian":[3.2002717E3,1.7090758E3,1.4911959E3,1.5436459E3,1.6542996E2,4.9157693E2,9.9961896E2,1.2555787E3,2.8806705E2,1.6603453E2,3.2554242E2,5.524448E2,4.471741E2,9.871857E1,1.1568602E3,2.2667574E2,6.1391323E1,7.546771E0,3.1799564E2,3.389876E2,2.1345724E2,2.2209587E0,4.4495316E2,3.367082E1,6.504775E1,5.5214645E1,1.1016455E3,2.1022598E2,1.6449745E1,2.4923642E0,5.889896E1,2.79935E2,5.90526E1,3.6703533E1,4.082496E2],"tree_param":{"num_deleted":"0","num_feature":"15","num_nodes":"35","size_leaf_vector":"1"}},{"base_weights":[5.645798E-3,1.1222683E0,-6.8085134E-1,7.405189E-1,8.194042E-2,-1.0013018E0,8.160545E-2,-6.6099197E-1,1.2452465E0,-1.4977902E0,9.368167E-1,-8.234704E-2,1.3686968E0,8.659732E-1,8.020711E-2,-1.5307647E0,7.237201E-2,7.252927E-1,1.4404187E0,-7.1050666E-2,7.491061E-2,-4.892261E-2,8.145278E-2,-7.729446E-2,-2.1066282E-2,4.3425236E-2,-9.219562E-2,3.5367884E-2,7.5064175E-2],"categories":[],"categories_nodes":[],"categories_segments":[],"categories_sizes":[],"default_left":[0,0,0,0,0,0,0,0,0,0,0,0,0,0,0,0,0,0,0,0,0,0,0,0,0,0,0,0,0],"id":5,"left_children":[1,3,5,7,-1,9,-1,11,13,15,17,-1,19,21,-1,23,-1,25,27,-1,-1,-1,-1,-1,-1,-1,-1,-1,-1],"loss_changes":[2.4191353E3,2.3571143E2,1.450163E3,4.908445E2,0E0,1.6537218E3,0E0,3.706114E2,6.798486E1,1.3500879E2,3.6322784E1,0E0,2.4070381E1,3.5340814E2,0E0,2.2046875E1,0E0,9.323546E1,3.5222626E0,0E0,0E0,0E0,0E0,0E0,0E0,0E0,0E0,0E0,0E0],"parents":[2147483647,0,0,1,1,2,2,3,3,5,5,7,7,8,8,9,9,10,10,12,12,13,13,15,15,17,17,18,18],"right_children":[2,4,6,8,-1,10,-1,12,14,16,18,-1,20,22,-1,24,-1,26,28,-1,-1,-1,-1,-1,-1,-1,-1,-1,-1],"split_conditions":[1.382E3,1E0,1E0,7.654878E3,8.194042E-2,2.05E2,8.160545E-2,2.07E2,1.5336292E6,1.0783E4,1.02896E4,-8.234704E-2,1E0,1E0,8.020711E-2,2.03E2,7.237201E-2,1.4420665E6,3.093E2,-7.1050666E-2,7.491061E-2,-4.892261E-2,8.145278E-2,-7.729446E-2,-2.1066282E-2,4.3425236E-2,-9.219562E-2,3.5367884E-2,7.5064175E-2],"split_indices":[2,13,14,8,0,4,0,4,11,9,9,0,5,14,0,4,0,11,1,0,0,0,0,0,0,0,0,0,0],"split_type":[0,0,0,0,0,0,0,0,0,0,0,0,0,0,0,0,0,0,0,0,0,0,0,0,0,0,0,0,0],"sum_hessian":[3.1538438E3,1.2005132E3,1.9533306E3,6.917261E2,5.0878714E2,1.7161348E3,2.3719585E2,1.83071E2,5.0865506E2,1.366345E3,3.4978983E2,1.233437E2,5.97273E1,2.4896594E2,2.5968912E2,1.3516919E3,1.4653113E1,2.4804543E2,1.0174441E2,2.2074718E0,5.7519825E1,7.277683E1,1.7618912E2,1.3331244E3,1.8567392E1,2.3557596E2,1.2469464E1,8.767676E0,9.297673E1],"tree_param":{"num_deleted":"0","num_feature":"15","num_nodes":"29","size_leaf_vector":"1"}},{"base_weights":[1.4498602E-2,1.0519377E0,-6.5937936E-1,6.872689E-1,7.9435244E-2,-9.8709387E-1,7.911325E-2,-1.8803883E-1,1.5027372E0,-1.4523017E0,2.60058E-1,-1.2587308E0,7.866374E-2,1.0767382E0,7.8011476E-2,-1.5065643E0,7.362274E-2,-7.9577595E-2,4.4365656E-1,-7.334459E-2,4.403819E-2,-7.4095145E-2,7.087183E-2,-6.3935526E-2,-7.832906E-2,1.0991247E-2,6.722124E-2],"categories":[],"categories_nodes":[],"categories_segments":[],"categories_sizes":[],"default_left":[0,0,0,0,0,0,0,0,0,0,0,0,0,0,0,0,0,0,0,0,0,0,0,0,0,0,0],"id":6,"left_children":[1,3,5,7,-1,9,-1,11,13,15,17,19,-1,21,-1,23,-1,-1,25,-1,-1,-1,-1,-1,-1,-1,-1],"loss_changes":[2.168671E3,2.3801013E2,1.3830505E3,5.207201E2,0E0,9.5263916E2,0E0,6.6682355E2,7.567505E0,1.919585E2,1.5258098E2,9.918915E1,0E0,4.4052E1,0E0,1.4055176E1,0E0,0E0,8.1810875E1,0E0,0E0,0E0,0E0,0E0,0E0,0E0,0E0],"parents":[2147483647,0,0,1,1,2,2,3,3,5,5,7,7,8,8,9,9,10,10,11,11,13,13,15,15,18,18],"right_children":[2,4,6,8,-1,10,-1,12,14,16,18,20,-1,22,-1,24,-1,-1,26,-1,-1,-1,-1,-1,-1,-1,-1],"split_conditions":[1.386E3,1E0,1E0,1.05549E4,7.9435244E-2,2.90411E5,7.911325E-2,1E0,1.1076E4,1.0783E4,9.1199725E5,2.7264E5,7.866374E-2,8.0834434E3,7.8011476E-2,1.44E3,7.362274E-2,-7.9577595E-2,1.02896E4,-7.334459E-2,4.403819E-2,-7.4095145E-2,7.087183E-2,-6.3935526E-2,-7.832906E-2,1.0991247E-2,6.722124E-2],"split_indices":[2,13,14,9,0,10,0,14,9,9,11,10,0,8,0,2,0,0,9,0,0,0,0,0,0,0,0],"split_type":[0,0,0,0,0,0,0,0,0,0,0,0,0,0,0,0,0,0,0,0,0,0,0,0,0,0,0],"sum_hessian":[3.100065E3,1.2205146E3,1.8795503E3,7.281229E2,4.9239166E2,1.6403073E3,2.3924309E2,3.515478E2,3.7657513E2,1.1945546E3,4.457527E2,2.1881613E2,1.3273166E2,4.7124706E1,3.294504E2,1.173272E3,2.1282637E1,3.952008E1,4.062326E2,1.9970073E2,1.9115406E1,5.143967E0,4.198074E1,2.4926065E2,9.240113E2,3.2637564E2,7.985695E1],"tree_param":{"num_deleted":"0","num_feature":"15","num_nodes":"27","size_leaf_vector":"1"}},{"base_weights":[-2.8553141E-2,1.0166446E0,-6.566659E-1,6.4225465E-1,7.723088E-2,-9.5325583E-1,7.68693E-2,-1.7573038E-1,1.449374E0,-1.4115503E0,2.6304427E-1,-1.3070071E0,7.6454334E-2,1.508774E0,6.9518524E-1,-1.4634334E0,7.103575E-2,-1.5394194E-1,1.1984065E0,2.1225674E-2,-7.105079E-2,5.834044E-2,7.706973E-2,-9.4031855E-2,7.3534794E-2,-6.312193E-2,-7.604309E-2,-7.0775783E-4,-9.098817E-2,2.720661E-3,6.5168746E-2],"categories":[],"categories_nodes":[],"categories_segments":[],"categories_sizes":[],"default_left":[0,0,0,0,0,0,0,0,0,0,0,0,0,0,0,0,0,0,0,0,0,0,0,0,0,0,0,0,0,0,0],"id":7,"left_children":[1,3,5,7,-1,9,-1,11,13,15,17,19,-1,21,23,25,-1,27,29,-1,-1,-1,-1,-1,-1,-1,-1,-1,-1,-1,-1],"loss_changes":[1.9567091E3,2.2016016E2,1.2129253E3,4.3356903E2,0E0,9.14885E2,0E0,6.32389E2,1.3755615E1,1.7720557E2,1.756354E2,3.9496613E1,0E0,1.6091309E0,5.4666424E1,1.1594482E1,0E0,7.263086E1,1.659871E1,0E0,0E0,0E0,0E0,0E0,0E0,0E0,0E0,0E0,0E0,0E0,0E0],"parents":[2147483647,0,0,1,1,2,2,3,3,5,5,7,7,8,8,9,9,10,10,11,11,13,13,14,14,15,15,17,17,18,18],"right_children":[2,4,6,8,-1,10,-1,12,14,16,18,20,-1,22,24,26,-1,28,30,-1,-1,-1,-1,-1,-1,-1,-1,-1,-1,-1,-1],"split_conditions":[1.382E3,1E0,1E0,1.05549E4,7.723088E-2,2.90411E5,7.68693E-2,1E0,1E0,1.0783E4,4.42E1,6.152851E3,7.6454334E-2,1.5336292E6,1.22664E4,1.44E3,7.103575E-2,6.298108E3,2.991E2,2.1225674E-2,-7.105079E-2,5.834044E-2,7.706973E-2,-9.4031855E-2,7.3534794E-2,-6.312193E-2,-7.604309E-2,-7.0775783E-4,-9.098817E-2,2.720661E-3,6.5168746E-2],"split_indices":[2,13,14,9,0,10,0,14,6,9,3,8,0,11,9,2,0,8,0,0,0,0,0,0,0,0,0,0,0,0,0],"split_type":[0,0,0,0,0,0,0,0,0,0,0,0,0,0,0,0,0,0,0,0,0,0,0,0,0,0,0,0,0,0,0],"sum_hessian":[2.9784902E3,1.1178076E3,1.8606826E3,6.553265E2,4.6248108E2,1.6396075E3,2.2107515E2,3.2586096E2,3.294655E2,1.1907715E3,4.4883597E2,1.9602E2,1.2984094E2,3.0448376E2,2.4981756E1,1.1698253E3,2.0946224E1,3.1101868E2,1.378173E2,1.1941011E1,1.84079E2,2.9717785E1,2.74766E2,5.451112E0,1.9530645E1,2.650732E2,9.0475214E2,2.878706E2,2.314806E1,1.1710407E1,1.26106895E2],"tree_param":{"num_deleted":"0","num_feature":"15","num_nodes":"31","size_leaf_vector":"1"}},{"base_weights":[8.871665E-3,9.934131E-1,-6.1830544E-1,6.552503E-1,7.513411E-2,-9.0173674E-1,7.485706E-2,-1.3557436E-1,1.4389987E0,-1.3321551E0,8.444457E-1,-1.2985997E0,7.454126E-2,1.4738799E0,1.0144806E0,-1.3771714E0,7.10465E-2,-8.8310644E-2,8.9322066E-1,-7.626415E-2,4.7697034E-2,5.986858E-2,7.516888E-2,-8.657989E-2,7.252537E-2,-5.4750513E-2,-7.228384E-2,3.5496853E-2,6.702592E-2],"categories":[],"categories_nodes":[],"categories_segments":[],"categories_sizes":[],"default_left":[0,0,0,0,0,0,0,0,0,0,0,0,0,0,0,0,0,0,0,0,0,0,0,0,0,0,0,0,0],"id":8,"left_children":[1,3,5,7,-1,9,-1,11,13,15,17,19,-1,21,23,25,-1,-1,27,-1,-1,-1,-1,-1,-1,-1,-1,-1,-1],"loss_changes":[1.8518066E3,1.9999146E2,1.0997693E3,4.35975E2,0E0,1.2158007E3,0E0,6.6563824E2,3.7349243E0,1.626919E2,4.2350388E1,1.06190674E2,0E0,8.441162E-1,3.8464706E1,2.3093018E1,0E0,0E0,2.4872147E1,0E0,0E0,0E0,0E0,0E0,0E0,0E0,0E0,0E0,0E0],"parents":[2147483647,0,0,1,1,2,2,3,3,5,5,7,7,8,8,9,9,10,10,11,11,13,13,14,14,15,15,18,18],"right_children":[2,4,6,8,-1,10,-1,12,14,16,18,20,-1,22,24,26,-1,-1,28,-1,-1,-1,-1,-1,-1,-1,-1,-1,-1],"split_conditions":[1.386E3,1E0,1E0,1.05549E4,7.513411E-2,2.05E2,7.485706E-2,1E0,1E0,1.0783E4,2.973E2,2.03E2,7.454126E-2,1.1076E4,1.22664E4,1.44E3,7.10465E-2,-8.8310644E-2,1.02896E4,-7.626415E-2,4.7697034E-2,5.986858E-2,7.516888E-2,-8.657989E-2,7.252537E-2,-5.4750513E-2,-7.228384E-2,3.5496853E-2,6.702592E-2],"split_indices":[2,13,14,9,0,4,0,14,6,9,0,4,0,9,9,2,0,0,9,0,0,0,0,0,0,0,0,0,0],"split_type":[0,0,0,0,0,0,0,0,0,0,0,0,0,0,0,0,0,0,0,0,0,0,0,0,0,0,0,0,0],"sum_hessian":[2.9969705E3,1.1660007E3,1.8309697E3,7.0208905E2,4.639117E2,1.6151437E3,2.1582603E2,3.4987857E2,3.5221048E2,1.2959425E3,3.1920117E2,2.0411739E2,1.4576117E2,3.231837E2,2.902682E1,1.2755848E3,2.0357603E1,5.2084756E0,3.1399268E2,1.8574763E2,1.8369759E1,3.5162758E1,2.880209E2,3.570246E0,2.5456573E1,2.5251314E2,1.0230717E3,2.2456331E2,8.942938E1],"tree_param":{"num_deleted":"0","num_feature":"15","num_nodes":"29","size_leaf_vector":"1"}},{"base_weights":[1.610106E-2,1.0068358E0,-6.0294354E-1,6.61616E-1,7.3257E-2,-8.9430064E-1,7.3048584E-2,-9.566276E-1,1.0182576E0,-1.3385707E0,8.3926547E-1,-7.38099E-2,1.0625335E0,5.150227E-1,1.4349667E0,-1.3835104E0,6.9070004E-2,6.55168E-1,1.4012418E0,-7.279422E-2,7.0529856E-2,-5.9626397E-2,7.296287E-2,7.312631E-2,5.934846E-2,-5.5064272E-2,-7.292458E-2,4.0191103E-2,-4.0976062E-2,4.582862E-2,7.197021E-2],"categories":[],"categories_nodes":[],"categories_segments":[],"categories_sizes":[],"default_left":[0,0,0,0,0,0,0,0,0,0,0,0,0,0,0,0,0,0,0,0,0,0,0,0,0,0,0,0,0,0,0],"id":9,"left_children":[1,3,5,7,-1,9,-1,11,13,15,17,-1,19,21,23,25,-1,27,29,-1,-1,-1,-1,-1,-1,-1,-1,-1,-1,-1,-1],"loss_changes":[1.7985203E3,1.7744861E2,1.0866029E3,3.732369E2,0E0,1.2196625E3,0E0,1.2431168E2,1.1019818E2,1.5590186E2,3.2537323E1,0E0,2.355257E1,3.90621E2,2.3809814E-1,2.4629883E1,0E0,5.4467087E1,1.4030457E-1,0E0,0E0,0E0,0E0,0E0,0E0,0E0,0E0,0E0,0E0,0E0,0E0],"parents":[2147483647,0,0,1,1,2,2,3,3,5,5,7,7,8,8,9,9,10,10,12,12,13,13,14,14,15,15,17,17,18,18],"right_children":[2,4,6,8,-1,10,-1,12,14,16,18,-1,20,22,24,26,-1,28,30,-1,-1,-1,-1,-1,-1,-1,-1,-1,-1,-1,-1],"split_conditions":[1.382E3,1E0,1E0,7.4493447E3,7.3257E-2,2.05E2,7.3048584E-2,2.07E2,1.5336292E6,1.0783E4,1.0783E4,-7.38099E-2,1.09E1,1E0,1E0,1.44E3,6.9070004E-2,1.4420665E6,1E0,-7.279422E-2,7.0529856E-2,-5.9626397E-2,7.296287E-2,7.312631E-2,5.934846E-2,-5.5064272E-2,-7.292458E-2,4.0191103E-2,-4.0976062E-2,4.582862E-2,7.197021E-2],"split_indices":[2,13,14,8,0,4,0,4,11,9,9,0,7,14,6,2,0,11,5,0,0,0,0,0,0,0,0,0,0,0,0],"split_type":[0,0,0,0,0,0,0,0,0,0,0,0,0,0,0,0,0,0,0,0,0,0,0,0,0,0,0,0,0,0,0],"sum_hessian":[2.9304966E3,1.1266887E3,1.8038077E3,6.440208E2,4.8266797E2,1.5811658E3,2.2264203E2,1.1599896E2,5.2802185E2,1.2587955E3,3.2237027E2,9.247278E1,2.3526182E1,2.4019202E2,2.8782983E2,1.238819E3,1.9976528E1,2.4445517E2,7.791511E1,2.4702015E0,2.105598E1,8.543277E1,1.5475925E2,2.5463528E2,3.319454E1,2.6333362E2,9.7548535E2,2.2248299E2,2.197218E1,7.513245E0,7.040186E1],"tree_param":{"num_deleted":"0","num_feature":"15","num_nodes":"31","size_leaf_vector":"1"}},{"base_weights":[2.6946409E-2,-5.2169687E-1,9.2408574E-1,-8.490142E-1,7.914849E-1,6.05597E-1,1.3662753E0,-1.0586385E0,7.099174E-2,8.268579E-1,-8.745757E-2,1.281006E0,7.610222E-2,-5.4911774E-2,1.3749208E0,4.4006866E-1,-1.3749063E0,6.8466127E-1,1.2346908E0,6.6990666E-2,7.766918E-1,-1.3075007E0,7.12412E-2,1.1143291E0,1.4119222E0,-5.994879E-2,6.1548878E-2,-6.991794E-2,-4.194012E-2,3.7302736E-2,-8.6091585E-2,-6.832569E-2,6.544652E-2,-6.615014E-2,6.750051E-2,-7.327091E-2,-1.1111376E-2,-8.4169805E-2,6.6425644E-2,6.049016E-2,7.2001725E-2],"categories":[],"categories_nodes":[],"categories_segments":[],"categories_sizes":[],"default_left":[0,0,0,0,0,0,0,0,0,0,0,0,0,0,0,0,0,0,0,0,0,0,0,0,0,0,0,0,0,0,0,0,0,0,0,0,0,0,0,0,0],"id":10,"left_children":[1,3,5,7,9,11,13,15,-1,17,-1,19,21,-1,23,25,27,29,31,-1,33,35,-1,37,39,-1,-1,-1,-1,-1,-1,-1,-1,-1,-1,-1,-1,-1,-1,-1,-1],"loss_changes":[1.4125883E3,7.6613477E2,1.5254639E2,6.797272E2,3.342572E1,2.2694897E2,1.1208496E1,6.196323E2,0E0,1.9546738E1,0E0,7.231781E0,6.679486E2,0E0,2.8045044E0,2.9746985E2,1.2388794E1,4.0136818E1,1.9103394E1,0E0,3.9715584E1,2.9960144E1,0E0,3.890719E1,4.9560547E-1,0E0,0E0,0E0,0E0,0E0,0E0,0E0,0E0,0E0,0E0,0E0,0E0,0E0,0E0,0E0,0E0],"parents":[2147483647,0,0,1,1,2,2,3,3,4,4,5,5,6,6,7,7,9,9,11,11,12,12,14,14,15,15,16,16,17,17,18,18,20,20,21,21,23,23,24,24],"right_children":[2,4,6,8,10,12,14,16,-1,18,-1,20,22,-1,24,26,28,30,32,-1,34,36,-1,38,40,-1,-1,-1,-1,-1,-1,-1,-1,-1,-1,-1,-1,-1,-1,-1,-1],"split_conditions":[5.03E1,2.03E2,1.05549E4,1E0,1.15E1,8.9E0,3.075E2,8.7E0,7.099174E-2,2.25E2,-8.745757E-2,8.6E0,1E0,-5.4911774E-2,1E0,4.43E1,7.301271E3,7.148003E3,2.972E2,6.6990666E-2,8.623462E3,3.023E2,7.12412E-2,8.227789E3,1.1076E4,-5.994879E-2,6.1548878E-2,-6.991794E-2,-4.194012E-2,3.7302736E-2,-8.6091585E-2,-6.832569E-2,6.544652E-2,-6.615014E-2,6.750051E-2,-7.327091E-2,-1.1111376E-2,-8.4169805E-2,6.6425644E-2,6.049016E-2,7.2001725E-2],"split_indices":[3,4,9,14,7,7,1,7,0,4,0,7,14,0,5,3,8,8,0,0,8,0,0,8,9,0,0,0,0,0,0,0,0,0,0,0,0,0,0,0,0],"split_type":[0,0,0,0,0,0,0,0,0,0,0,0,0,0,0,0,0,0,0,0,0,0,0,0,0,0,0,0,0,0,0,0,0,0,0,0,0,0,0,0,0],"sum_hessian":[2.8679133E3,1.7798618E3,1.0880515E3,1.4250214E3,3.5484048E2,6.338722E2,4.5417926E2,1.3049841E3,1.2003715E2,3.506332E2,4.2072916E0,2.7793137E2,3.5594086E2,1.147127E0,4.5303214E2,2.2733136E2,1.0776528E3,2.619718E2,8.866141E1,2.4742303E2,3.0508326E1,1.7571353E2,1.8022734E2,6.019677E1,3.9283536E2,7.382459E1,1.5350676E2,1.030945E3,4.67079E1,2.5612756E2,5.8442397E0,1.9772087E0,8.6684204E1,6.263082E0,2.4245243E1,1.5308759E2,2.2625946E1,3.7929292E0,5.640384E1,5.3343708E1,3.3949167E2],"tree_param":{"num_deleted":"0","num_feature":"15","num_nodes":"41","size_leaf_vector":"1"}},{"base_weights":[-8.779468E-3,9.352383E-1,-6.150666E-1,6.03477E-1,7.042534E-2,-9.4970804E-1,4.071627E-1,-7.97186E-2,1.3091252E0,1.2700263E0,-1.123946E0,1.9909748E-1,1.3158922E0,-1.0455958E0,1.2692255E0,1.3590733E0,6.43295E-1,6.703816E-2,4.9712166E-1,-1.3150916E0,1.1465019E0,-2.0801173E-1,9.915539E-1,9.866604E-1,7.0891604E-2,-6.291848E-2,4.1204672E-2,3.5145715E-2,6.673694E-2,5.067521E-2,7.006919E-2,-8.3835445E-2,6.702366E-2,5.983832E-2,-5.0639194E-2,-6.7317426E-2,-9.883617E-4,3.4733824E-2,6.894152E-2,3.1556837E-2,-3.712467E-2,5.3037174E-2,-6.598045E-2,2.6010275E-2,6.209603E-2],"categories":[],"categories_nodes":[],"categories_segments":[],"categories_sizes":[],"default_left":[0,0,0,0,0,0,0,0,0,0,0,0,0,0,0,0,0,0,0,0,0,0,0,0,0,0,0,0,0,0,0,0,0,0,0,0,0,0,0,0,0,0,0,0,0],"id":11,"left_children":[1,3,5,7,-1,9,11,13,15,17,19,21,23,25,27,29,31,-1,33,35,37,39,41,43,-1,-1,-1,-1,-1,-1,-1,-1,-1,-1,-1,-1,-1,-1,-1,-1,-1,-1,-1,-1,-1],"loss_changes":[1.572602E3,1.6786597E2,5.727203E2,3.054933E2,0E0,4.890431E2,7.788864E1,4.2189938E2,9.490845E0,4.3759766E0,5.090703E2,1.0909045E2,1.1795654E0,7.6087326E1,4.0756073E0,2.80542E0,4.0496193E1,0E0,1.1060338E1,4.3667236E1,8.63134E0,1.00839676E2,1.9743744E1,1.9082165E0,0E0,0E0,0E0,0E0,0E0,0E0,0E0,0E0,0E0,0E0,0E0,0E0,0E0,0E0,0E0,0E0,0E0,0E0,0E0,0E0,0E0],"parents":[2147483647,0,0,1,1,2,2,3,3,5,5,6,6,7,7,8,8,9,9,10,10,11,11,12,12,13,13,14,14,15,15,16,16,18,18,19,19,20,20,21,21,22,22,23,23],"right_children":[2,4,6,8,-1,10,12,14,16,18,20,22,24,26,28,30,32,-1,34,36,38,40,42,44,-1,-1,-1,-1,-1,-1,-1,-1,-1,-1,-1,-1,-1,-1,-1,-1,-1,-1,-1,-1,-1],"split_conditions":[1.386E3,1E0,2.9988E5,1.05549E4,7.042534E-2,1.58E1,1.05549E4,6.25E1,1E0,1.38E1,5.67E1,3.64826E5,9.7E0,2.7264E5,6.4E1,1.1076E4,1.22664E4,6.703816E-2,2.174E3,9.5232E3,6.15E1,3.088E2,3.118E2,5.12E1,7.0891604E-2,-6.291848E-2,4.1204672E-2,3.5145715E-2,6.673694E-2,5.067521E-2,7.006919E-2,-8.3835445E-2,6.702366E-2,5.983832E-2,-5.0639194E-2,-6.7317426E-2,-9.883617E-4,3.4733824E-2,6.894152E-2,3.1556837E-2,-3.712467E-2,5.3037174E-2,-6.598045E-2,2.6010275E-2,6.209603E-2],"split_indices":[2,13,10,9,0,3,9,3,6,3,3,10,7,10,3,9,9,0,2,9,3,1,1,3,0,0,0,0,0,0,0,0,0,0,0,0,0,0,0,0,0,0,0,0,0],"split_type":[0,0,0,0,0,0,0,0,0,0,0,0,0,0,0,0,0,0,0,0,0,0,0,0,0,0,0,0,0,0,0,0,0,0,0,0,0,0,0,0,0,0,0,0,0],"sum_hessian":[2.745638E3,1.0735411E3,1.6720969E3,6.32461E2,4.4108014E2,1.2597655E3,4.123314E2,3.217935E2,3.106675E2,9.123041E1,1.1685352E3,3.365037E2,7.582772E1,1.8765369E2,1.3413979E2,2.880201E2,2.2647392E1,8.29079E1,8.322507E0,1.078185E3,9.0350075E1,2.227881E2,1.1371558E2,2.0452337E1,5.537538E1,1.6877391E2,1.887978E1,1.512502E1,1.1901476E2,3.4139614E1,2.5388051E2,4.908466E0,1.7738926E1,5.8289413E0,2.493566E0,1.0527424E3,2.5442585E1,3.2036495E1,5.8313583E1,8.661684E1,1.3617126E2,1.1093553E2,2.7800558E0,8.308172E0,1.2144166E1],"tree_param":{"num_deleted":"0","num_feature":"15","num_nodes":"45","size_leaf_vector":"1"}},{"base_weights":[4.2582965E-3,-6.2299556E-1,7.2164863E-1,-9.38052E-1,6.4534074E-1,4.349862E-1,1.3162243E0,-1.1888844E0,6.845597E-2,6.8744886E-1,-8.344616E-2,-1.3510369E-1,6.876145E-2,9.719587E-1,1.3512563E0,-1.342163E0,6.933271E-2,1.0858941E0,4.7068247E-1,-1.2550616E0,6.879359E-2,-6.2449593E-2,1.0938838E0,6.8917476E-2,1.1203529E0,-3.6571845E-2,-6.8388E-2,6.115498E-2,-9.009784E-2,-4.36888E-2,3.276744E-2,-7.1402155E-2,-3.0691756E-2,2.2780145E-2,6.272144E-2,-9.00759E-2,6.8311855E-2],"categories":[],"categories_nodes":[],"categories_segments":[],"categories_sizes":[],"default_left":[0,0,0,0,0,0,0,0,0,0,0,0,0,0,0,0,0,0,0,0,0,0,0,0,0,0,0,0,0,0,0,0,0,0,0,0,0],"id":12,"left_children":[1,3,5,7,9,11,13,15,-1,17,-1,19,-1,21,23,25,-1,27,29,31,-1,-1,33,-1,35,-1,-1,-1,-1,-1,-1,-1,-1,-1,-1,-1,-1],"loss_changes":[1.2278115E3,5.823131E2,2.1637048E2,6.766887E2,2.9431717E1,4.6131192E2,3.6741943E0,4.174165E2,0E0,2.4170685E1,0E0,9.0954865E2,0E0,1.2673866E1,7.878418E-1,1.453894E1,0E0,4.1796806E1,4.6961872E1,3.3355743E1,0E0,0E0,3.5394707E0,0E0,3.4425262E1,0E0,0E0,0E0,0E0,0E0,0E0,0E0,0E0,0E0,0E0,0E0,0E0],"parents":[2147483647,0,0,1,1,2,2,3,3,4,4,5,5,6,6,7,7,9,9,11,11,13,13,14,14,15,15,17,17,18,18,19,19,22,22,24,24],"right_children":[2,4,6,8,10,12,14,16,-1,18,-1,20,-1,22,24,26,-1,28,30,32,-1,-1,34,-1,36,-1,-1,-1,-1,-1,-1,-1,-1,-1,-1,-1,-1],"split_conditions":[4.73E1,2.03E2,1.0783E4,1E0,1.16E1,1E0,1.1076E4,1E0,6.845597E-2,3.13071E5,-8.344616E-2,1E0,6.876145E-2,3.088E2,1E0,8.3E0,6.933271E-2,2.12E2,3.22465E5,3.019E2,6.879359E-2,-6.2449593E-2,5.27E1,6.8917476E-2,1.22664E4,-3.6571845E-2,-6.8388E-2,6.115498E-2,-9.009784E-2,-4.36888E-2,3.276744E-2,-7.1402155E-2,-3.0691756E-2,2.2780145E-2,6.272144E-2,-9.00759E-2,6.8311855E-2],"split_indices":[3,4,9,14,7,13,9,13,0,10,0,14,0,1,6,7,0,4,10,0,0,0,3,0,9,0,0,0,0,0,0,0,0,0,0,0,0],"split_type":[0,0,0,0,0,0,0,0,0,0,0,0,0,0,0,0,0,0,0,0,0,0,0,0,0,0,0,0,0,0,0,0,0,0,0,0,0],"sum_hessian":[2.7265566E3,1.4547341E3,1.2718224E3,1.1654862E3,2.8924792E2,8.5927313E2,4.1254932E2,1.0516383E3,1.1384788E2,2.847695E2,4.478437E0,5.3546515E2,3.2380798E2,4.0757923E1,3.7179138E2,9.9301935E2,5.8618923E1,9.8924194E1,1.8584529E2,3.076211E2,2.2784406E2,1.6400126E0,3.911791E1,3.2830072E2,4.349067E1,4.1135227E1,9.518841E2,9.498768E1,3.936516E0,2.1993143E1,1.6385216E2,2.4129948E2,6.632162E1,8.633083E0,3.0484825E1,2.8847044E0,4.0605965E1],"tree_param":{"num_deleted":"0","num_feature":"15","num_nodes":"37","size_leaf_vector":"1"}},{"base_weights":[3.6640648E-2,9.1519284E-1,-4.6657765E-1,5.9468937E-1,6.783349E-2,-8.0351925E-1,8.3820176E-1,-8.8975215E-1,9.418851E-1,6.620842E-2,-1.0148066E0,7.3548216E-1,6.6796E-2,-6.821217E-2,8.579624E-1,4.652159E-1,1.3102416E0,-1.2106919E0,1.1045061E0,7.6421005E-1,-8.774618E-2,6.0486045E-2,-6.975855E-2,-5.060431E-2,6.592519E-2,6.704836E-2,4.8910882E-2,-4.5657616E-2,-6.428039E-2,2.199307E-2,6.6114776E-2,3.104273E-2,6.244653E-2],"categories":[],"categories_nodes":[],"categories_segments":[],"categories_sizes":[],"default_left":[0,0,0,0,0,0,0,0,0,0,0,0,0,0,0,0,0,0,0,0,0,0,0,0,0,0,0,0,0,0,0,0,0],"id":13,"left_children":[1,3,5,7,-1,9,11,13,15,-1,17,19,-1,-1,21,23,25,27,29,31,-1,-1,-1,-1,-1,-1,-1,-1,-1,-1,-1,-1,-1],"loss_changes":[1.1880358E3,1.3766473E2,7.5184863E2,2.9398346E2,0E0,6.120494E2,1.6970886E1,9.100549E1,8.041412E1,0E0,5.145868E2,2.2325989E1,0E0,0E0,2.0506857E1,2.568544E2,1.3381042E0,2.406311E1,1.4635666E1,1.942218E1,0E0,0E0,0E0,0E0,0E0,0E0,0E0,0E0,0E0,0E0,0E0,0E0,0E0],"parents":[2147483647,0,0,1,1,2,2,3,3,5,5,6,6,7,7,8,8,10,10,11,11,14,14,15,15,16,16,17,17,18,18,19,19],"right_children":[2,4,6,8,-1,10,12,14,16,-1,18,20,-1,-1,22,24,26,28,30,32,-1,-1,-1,-1,-1,-1,-1,-1,-1,-1,-1,-1,-1],"split_conditions":[1.382E3,1E0,2.05E2,7.4493447E3,6.783349E-2,3.5364385E3,7.705698E3,2.07E2,1.0783E4,6.620842E-2,5.67E1,2.34E2,6.6796E-2,-6.821217E-2,2.993E2,8.969059E3,1E0,1.44E3,8.969059E3,2.25E2,-8.774618E-2,6.0486045E-2,-6.975855E-2,-5.060431E-2,6.592519E-2,6.704836E-2,4.8910882E-2,-4.5657616E-2,-6.428039E-2,2.199307E-2,6.6114776E-2,3.104273E-2,6.244653E-2],"split_indices":[2,13,4,8,0,8,8,4,9,0,3,4,0,0,0,8,6,2,8,4,0,0,0,0,0,0,0,0,0,0,0,0,0],"split_type":[0,0,0,0,0,0,0,0,0,0,0,0,0,0,0,0,0,0,0,0,0,0,0,0,0,0,0,0,0,0,0,0,0],"sum_hessian":[2.6852686E3,9.776329E2,1.7076356E3,5.6778174E2,4.0985117E2,1.3574712E3,3.5016434E2,1.0732957E2,4.6045215E2,1.2214908E2,1.2353221E3,2.9231403E2,5.785033E1,8.458484E1,2.2744726E1,2.017029E2,2.5874927E2,1.1311959E3,1.0412623E2,2.8966574E2,2.648274E0,2.007389E1,2.6708355E0,7.378039E1,1.2792251E2,2.3405128E2,2.4697983E1,2.3018237E2,9.0101355E2,2.6444172E1,7.768206E1,2.2531114E2,6.435459E1],"tree_param":{"num_deleted":"0","num_feature":"15","num_nodes":"33","size_leaf_vector":"1"}},{"base_weights":[-2.4447846E-3,8.554141E-1,-5.1645637E-1,5.4144E-1,6.664372E-2,-9.0235466E-1,3.782914E-1,-1.21425204E-1,1.2344677E0,6.32633E-2,-1.0478119E0,2.060376E-1,1.1667027E0,-1.1276733E0,6.5465964E-2,8.120038E-1,1.2872814E0,-1.2336104E0,1.0429974E0,2.896456E-1,-8.787309E-2,7.991434E-1,1.285615E0,-6.765753E-2,3.1980995E-2,-6.730784E-2,5.6955367E-2,4.9084067E-2,6.664979E-2,-4.9362592E-2,-6.5074965E-2,2.2761293E-2,6.4524725E-2,6.6538504E-3,6.1008703E-2,-8.659347E-2,6.340038E-2,3.2865785E-2,6.709476E-2],"categories":[],"categories_nodes":[],"categories_segments":[],"categories_sizes":[],"default_left":[0,0,0,0,0,0,0,0,0,0,0,0,0,0,0,0,0,0,0,0,0,0,0,0,0,0,0,0,0,0,0,0,0,0,0,0,0,0,0],"id":14,"left_children":[1,3,5,7,-1,9,11,13,15,-1,17,19,21,23,-1,25,27,29,31,33,-1,35,37,-1,-1,-1,-1,-1,-1,-1,-1,-1,-1,-1,-1,-1,-1,-1,-1],"loss_changes":[1.1337699E3,1.4369843E2,5.5549304E2,2.6791333E2,0E0,3.5560223E2,6.565193E1,4.3169882E2,5.314575E0,0E0,4.105465E2,6.607752E1,2.7656937E0,7.099054E1,0E0,2.5805843E1,2.2071838E0,1.4904785E1,1.1999001E1,5.577641E1,0E0,3.0505936E1,1.3784637E0,0E0,0E0,0E0,0E0,0E0,0E0,0E0,0E0,0E0,0E0,0E0,0E0,0E0,0E0,0E0,0E0],"parents":[2147483647,0,0,1,1,2,2,3,3,5,5,6,6,7,7,8,8,10,10,11,11,12,12,13,13,15,15,16,16,17,17,18,18,19,19,21,21,22,22],"right_children":[2,4,6,8,-1,10,12,14,16,-1,18,20,22,24,-1,26,28,30,32,34,-1,36,38,-1,-1,-1,-1,-1,-1,-1,-1,-1,-1,-1,-1,-1,-1,-1,-1],"split_conditions":[1.386E3,1E0,2.90411E5,1.05549E4,6.664372E-2,3.5364385E3,1.02896E4,8.969059E3,1.1076E4,6.32633E-2,5.67E1,1.4264739E6,1.6484411E6,2.7264E5,6.5465964E-2,8.0834434E3,1E0,1.44E3,8.969059E3,2.261E3,-8.787309E-2,3.108E2,1E0,-6.765753E-2,3.1980995E-2,-6.730784E-2,5.6955367E-2,4.9084067E-2,6.664979E-2,-4.9362592E-2,-6.5074965E-2,2.2761293E-2,6.4524725E-2,6.6538504E-3,6.1008703E-2,-8.659347E-2,6.340038E-2,3.2865785E-2,6.709476E-2],"split_indices":[2,13,10,9,0,8,9,8,9,0,3,11,11,10,0,8,5,2,8,2,0,1,5,0,0,0,0,0,0,0,0,0,0,0,0,0,0,0,0],"split_type":[0,0,0,0,0,0,0,0,0,0,0,0,0,0,0,0,0,0,0,0,0,0,0,0,0,0,0,0,0,0,0,0,0,0,0,0,0,0,0],"sum_hessian":[2.5692E3,9.623774E2,1.6068226E3,5.81875E2,3.8050238E2,1.1226312E3,4.8419135E2,2.9783112E2,2.8404388E2,7.01122E1,1.052519E3,3.9840768E2,8.5783646E1,1.7497932E2,1.228518E2,3.338303E1,2.5066087E2,9.669974E2,8.552168E1,3.8295358E2,1.5454113E1,2.285597E1,6.2927673E1,1.5538864E2,1.9590689E1,3.9837441E0,2.9399286E1,3.5541336E1,2.1511954E2,2.122642E2,7.547332E2,2.6182102E1,5.9339577E1,3.2877728E2,5.4176304E1,3.151243E0,1.9704727E1,6.215747E0,5.671193E1],"tree_param":{"num_deleted":"0","num_feature":"15","num_nodes":"39","size_leaf_vector":"1"}},{"base_weights":[4.4897467E-2,8.6797154E-1,-4.6248075E-1,5.7946455E-1,6.545998E-2,-7.839062E-1,7.373431E-1,-7.562569E-2,1.2196549E0,6.353752E-2,-9.8366654E-1,1.1175044E0,5.0890154E-1,-9.4964206E-1,6.403642E-2,7.549093E-1,1.2746665E0,-1.1554981E0,1.0566057E0,-7.187703E-2,1.1861635E0,5.7140654E-1,-9.2497915E-2,-5.7843115E-2,4.838648E-2,-6.725562E-2,5.5538386E-2,5.1333338E-2,6.569714E-2,-4.0914427E-2,-6.18728E-2,2.487349E-2,6.350795E-2,-6.92859E-2,6.173758E-2,6.0691005E-3,4.2512722E-2],"categories":[],"categories_nodes":[],"categories_segments":[],"categories_sizes":[],"default_left":[0,0,0,0,0,0,0,0,0,0,0,0,0,0,0,0,0,0,0,0,0,0,0,0,0,0,0,0,0,0,0,0,0,0,0,0,0],"id":15,"left_children":[1,3,5,7,-1,9,11,13,15,-1,17,19,21,23,-1,25,27,29,31,-1,33,35,-1,-1,-1,-1,-1,-1,-1,-1,-1,-1,-1,-1,-1,-1,-1],"loss_changes":[1.0637838E3,1.2290045E2,6.083434E2,2.471733E2,0E0,5.116059E2,2.8393585E1,3.475295E2,6.657135E0,0E0,3.9872034E2,2.3518234E1,3.2042107E1,7.1932465E1,0E0,2.6899384E1,1.2325134E0,2.79021E1,9.946899E0,0E0,1.6911057E1,2.5683624E1,0E0,0E0,0E0,0E0,0E0,0E0,0E0,0E0,0E0,0E0,0E0,0E0,0E0,0E0,0E0],"parents":[2147483647,0,0,1,1,2,2,3,3,5,5,6,6,7,7,8,8,10,10,11,11,12,12,13,13,15,15,16,16,17,17,18,18,20,20,21,21],"right_children":[2,4,6,8,-1,10,12,14,16,-1,18,20,22,24,-1,26,28,30,32,-1,34,36,-1,-1,-1,-1,-1,-1,-1,-1,-1,-1,-1,-1,-1,-1,-1],"split_conditions":[1.386E3,1E0,2.05E2,1.05549E4,6.545998E-2,3.5364385E3,1.456E3,8.969059E3,1.1076E4,6.353752E-2,5.67E1,2.07E2,3.121E2,2.03E2,6.403642E-2,8.0834434E3,1E0,1.44E3,8.969059E3,-7.187703E-2,1.394E3,2.14E2,-9.2497915E-2,-5.7843115E-2,4.838648E-2,-6.725562E-2,5.5538386E-2,5.1333338E-2,6.569714E-2,-4.0914427E-2,-6.18728E-2,2.487349E-2,6.350795E-2,-6.92859E-2,6.173758E-2,6.0691005E-3,4.2512722E-2],"split_indices":[2,13,4,9,0,8,2,8,9,0,3,4,1,4,0,8,5,2,8,0,2,4,0,0,0,0,0,0,0,0,0,0,0,0,0,0,0],"split_type":[0,0,0,0,0,0,0,0,0,0,0,0,0,0,0,0,0,0,0,0,0,0,0,0,0,0,0,0,0,0,0,0,0,0,0,0,0],"sum_hessian":[2.5453538E3,9.704192E2,1.5749346E3,5.881544E2,3.8226477E2,1.2424393E3,3.3249524E2,2.9113025E2,2.9702417E2,1.0961551E2,1.1328237E3,1.2334261E2,2.0915262E2,1.7722723E2,1.13903E2,3.299562E1,2.6402856E2,1.0452284E3,8.759541E1,2.705991E0,1.2063662E2,2.0449176E2,4.6608577E0,1.6029948E2,1.6927748E1,4.3782735E0,2.8617348E1,3.9808407E1,2.2422015E2,2.0651625E2,8.387121E2,2.5129526E1,6.2465885E1,1.7265468E0,1.1891007E2,7.87824E1,1.2570936E2],"tree_param":{"num_deleted":"0","num_feature":"15","num_nodes":"37","size_leaf_vector":"1"}},{"base_weights":[6.987104E-3,8.43662E-1,-4.928025E-1,5.439674E-1,6.453946E-2,-8.434755E-1,7.407045E-1,-6.056454E-2,1.1884001E0,-1.1200655E0,6.416105E-2,5.798433E-1,1.1952069E0,-9.239311E-1,6.392392E-2,8.1680846E-1,1.2467017E0,-1.1620806E0,5.909125E-2,6.271814E-1,-8.20671E-2,3.4849602E-1,6.357476E-2,-5.6547012E-2,4.7462735E-2,-6.31935E-2,5.3485036E-2,4.8983708E-2,6.4419E-2,-5.8982152E-2,-6.34442E-3,-9.025984E-2,3.3587173E-2,-8.254339E-2,5.830716E-2],"categories":[],"categories_nodes":[],"categories_segments":[],"categories_sizes":[],"default_left":[0,0,0,0,0,0,0,0,0,0,0,0,0,0,0,0,0,0,0,0,0,0,0,0,0,0,0,0,0,0,0,0,0,0,0],"id":16,"left_children":[1,3,5,7,-1,9,11,13,15,17,-1,19,21,23,-1,25,27,29,-1,31,-1,33,-1,-1,-1,-1,-1,-1,-1,-1,-1,-1,-1,-1,-1],"loss_changes":[1.00785114E3,1.2007666E2,6.5330164E2,2.1097382E2,0E0,6.9280005E2,2.3765549E1,3.252055E2,4.6595154E0,1.0201526E2,0E0,2.7213936E1,5.144829E0,6.737627E1,0E0,2.1580126E1,1.237854E0,1.8438965E1,0E0,2.7720406E1,0E0,1.5866056E1,0E0,0E0,0E0,0E0,0E0,0E0,0E0,0E0,0E0,0E0,0E0,0E0,0E0],"parents":[2147483647,0,0,1,1,2,2,3,3,5,5,6,6,7,7,8,8,9,9,11,11,12,12,13,13,15,15,16,16,17,17,19,19,21,21],"right_children":[2,4,6,8,-1,10,12,14,16,18,-1,20,22,24,-1,26,28,30,-1,32,-1,34,-1,-1,-1,-1,-1,-1,-1,-1,-1,-1,-1,-1,-1],"split_conditions":[1.386E3,1E0,2.05E2,1.05549E4,6.453946E-2,1E0,1.05549E4,1E0,1.1076E4,1.0783E4,6.416105E-2,1.16E1,1E0,2.03E2,6.392392E-2,5.67E1,1E0,2.03E2,5.909125E-2,8.3E0,-8.20671E-2,5.39E1,6.357476E-2,-5.6547012E-2,4.7462735E-2,-6.31935E-2,5.3485036E-2,4.8983708E-2,6.4419E-2,-5.8982152E-2,-6.34442E-3,-9.025984E-2,3.3587173E-2,-8.254339E-2,5.830716E-2],"split_indices":[2,13,4,9,0,14,9,14,9,9,0,7,5,4,0,3,5,4,0,7,0,3,0,0,0,0,0,0,0,0,0,0,0,0,0],"split_type":[0,0,0,0,0,0,0,0,0,0,0,0,0,0,0,0,0,0,0,0,0,0,0,0,0,0,0,0,0,0,0,0,0,0,0],"sum_hessian":[2.408202E3,9.0032355E2,1.5078784E3,5.4035675E2,3.5996677E2,1.1743417E3,3.3353674E2,2.7927728E2,2.610795E2,1.0396077E3,1.3473401E2,2.4802832E2,8.550843E1,1.6998625E2,1.09291016E2,3.744287E1,2.2363661E2,1.0214587E3,1.8149014E1,2.4355528E2,4.4730377E0,7.5277286E0,7.7980705E1,1.5342702E2,1.6559242E1,3.6245039E0,3.3818367E1,3.350163E1,1.9013498E2,1.00428125E3,1.7177477E1,3.670936E0,2.3988435E2,1.8891674E0,5.6385612E0],"tree_param":{"num_deleted":"0","num_feature":"15","num_nodes":"35","size_leaf_vector":"1"}},{"base_weights":[1.4492935E-2,8.154429E-1,-4.503372E-1,1.2412853E0,5.348261E-1,-6.822695E-1,6.3704625E-2,6.261346E-2,-4.79647E-2,-1.2662774E-1,1.1721171E0,-1.0965298E0,5.613746E-1,-8.988932E-1,6.2947914E-2,7.8894824E-1,1.2300291E0,-1.1257818E0,6.061379E-2,2.6039985E-1,9.042482E-1,-5.5126138E-2,4.044673E-2,-6.352863E-2,5.4985803E-2,4.6683695E-2,6.375554E-2,-3.8846314E-2,-6.084251E-2,3.395059E-2,-6.745566E-2,4.862006E-2,-8.790837E-2],"categories":[],"categories_nodes":[],"categories_segments":[],"categories_sizes":[],"default_left":[0,0,0,0,0,0,0,0,0,0,0,0,0,0,0,0,0,0,0,0,0,0,0,0,0,0,0,0,0,0,0,0,0],"id":17,"left_children":[1,3,5,7,9,11,-1,-1,-1,13,15,17,19,21,-1,23,25,27,-1,29,31,-1,-1,-1,-1,-1,-1,-1,-1,-1,-1,-1,-1],"loss_changes":[8.7266754E2,1.0219574E2,5.940799E2,9.447205E0,2.1960533E2,6.7449817E2,0E0,0E0,0E0,2.754517E2,4.915344E0,6.765393E1,3.3560936E1,5.834195E1,0E0,2.5471584E1,1.8640137E0,2.9863525E1,0E0,1.19369125E2,2.9415092E1,0E0,0E0,0E0,0E0,0E0,0E0,0E0,0E0,0E0,0E0,0E0,0E0],"parents":[2147483647,0,0,1,1,2,2,3,3,4,4,5,5,9,9,10,10,11,11,12,12,13,13,15,15,16,16,17,17,19,19,20,20],"right_children":[2,4,6,8,10,12,-1,-1,-1,14,16,18,20,22,-1,24,26,28,-1,30,32,-1,-1,-1,-1,-1,-1,-1,-1,-1,-1,-1,-1],"split_conditions":[1.386E3,8.7E0,1E0,1.382E3,1.05549E4,2.02E2,6.3704625E-2,6.261346E-2,-4.79647E-2,1E0,1.1076E4,1.0783E4,2.17E2,2.03E2,6.2947914E-2,8.0834434E3,1E0,1.44E3,6.061379E-2,1.555E3,3.028E2,-5.5126138E-2,4.044673E-2,-6.352863E-2,5.4985803E-2,4.6683695E-2,6.375554E-2,-3.8846314E-2,-6.084251E-2,3.395059E-2,-6.745566E-2,4.862006E-2,-8.790837E-2],"split_indices":[2,7,14,2,9,4,0,0,0,14,9,9,4,4,0,8,5,2,0,2,0,0,0,0,0,0,0,0,0,0,0,0,0],"split_type":[0,0,0,0,0,0,0,0,0,0,0,0,0,0,0,0,0,0,0,0,0,0,0,0,0,0,0,0,0,0,0,0,0],"sum_hessian":[2.341968E3,8.597597E2,1.4822084E3,3.401504E2,5.1960925E2,1.307021E3,1.7518733E2,3.388898E2,1.2605897E0,2.5536426E2,2.6424503E2,9.805246E2,3.264964E2,1.6419843E2,9.116582E1,3.6614185E1,2.2763084E2,9.6876306E2,1.1761549E1,1.7480865E2,1.5168776E2,1.4702287E2,1.7175558E1,4.3955436E0,3.221864E1,3.2921886E1,1.9470895E2,2.0251613E2,7.6624695E2,1.3918636E2,3.5622303E1,1.4852066E2,3.1670933E0],"tree_param":{"num_deleted":"0","num_feature":"15","num_nodes":"33","size_leaf_vector":"1"}},{"base_weights":[5.6344472E-2,-5.3579813E-1,5.8111995E-1,-7.4931604E-1,6.275832E-2,3.1243214E-1,1.1615614E0,-1.1673597E0,5.362768E-1,-1.7701644E-1,6.269272E-2,7.303223E-1,1.2258818E0,-1.2004297E0,5.864194E-2,6.162247E-1,-8.900141E-2,-7.7549505E-1,6.2425584E-2,-8.2294E-1,6.288826E-2,8.5481024E-1,6.2471785E-2,-4.6161722E-2,-6.375883E-2,1.4292075E-2,4.690173E-2,-4.5948535E-2,3.6435008E-2,-9.77462E-2,5.3732485E-2,2.6401267E-3,5.9022006E-2],"categories":[],"categories_nodes":[],"categories_segments":[],"categories_sizes":[],"default_left":[0,0,0,0,0,0,0,0,0,0,0,0,0,0,0,0,0,0,0,0,0,0,0,0,0,0,0,0,0,0,0,0,0],"id":18,"left_children":[1,3,5,7,-1,9,11,13,15,17,-1,19,21,23,-1,25,-1,27,-1,29,-1,31,-1,-1,-1,-1,-1,-1,-1,-1,-1,-1,-1],"loss_changes":[7.3417914E2,4.2545752E2,1.9497913E2,5.340318E2,0E0,3.9536896E2,1.008783E1,5.9394714E1,4.632415E1,4.830821E2,0E0,4.5166695E1,1.9307861E0,1.4141235E1,0E0,2.4911087E1,0E0,8.669849E1,0E0,3.2731026E1,0E0,6.1126423E0,0E0,0E0,0E0,0E0,0E0,0E0,0E0,0E0,0E0,0E0,0E0],"parents":[2147483647,0,0,1,1,2,2,3,3,5,5,6,6,7,7,8,8,9,9,11,11,12,12,13,13,15,15,17,17,19,19,21,21],"right_children":[2,4,6,8,-1,10,12,14,16,18,-1,20,22,24,-1,26,-1,28,-1,30,-1,32,-1,-1,-1,-1,-1,-1,-1,-1,-1,-1,-1],"split_conditions":[4.48E1,1E0,1.05549E4,2.03E2,6.275832E-2,1E0,1E0,1E0,1.4264739E6,1E0,6.269272E-2,1.22664E4,1.5336292E6,2.92E1,5.864194E-2,2.14E2,-8.900141E-2,2.07E2,6.2425584E-2,3.037E2,6.288826E-2,6.25E1,6.2471785E-2,-4.6161722E-2,-6.375883E-2,1.4292075E-2,4.690173E-2,-4.5948535E-2,3.6435008E-2,-9.77462E-2,5.3732485E-2,2.6401267E-3,5.9022006E-2],"split_indices":[3,14,9,4,0,13,5,13,11,14,0,9,11,3,0,4,0,4,0,0,0,3,0,0,0,0,0,0,0,0,0,0,0],"split_type":[0,0,0,0,0,0,0,0,0,0,0,0,0,0,0,0,0,0,0,0,0,0,0,0,0,0,0,0,0,0,0,0,0],"sum_hessian":[2.3606633E3,1.1091299E3,1.2515334E3,9.9150476E2,1.1762512E2,8.5656537E2,3.9496808E2,7.4827563E2,2.4322914E2,5.640999E2,2.9246548E2,5.286786E1,3.4210022E2,7.383291E2,9.946493E0,2.358236E2,7.405551E0,3.9762234E2,1.6647755E2,1.3259582E1,3.9608276E1,2.2644617E1,3.194556E2,1.5964478E2,5.786843E2,1.172935E2,1.1853008E2,3.6335342E2,3.426892E1,8.286284E0,4.9732966E0,6.874722E0,1.5769895E1],"tree_param":{"num_deleted":"0","num_feature":"15","num_nodes":"33","size_leaf_vector":"1"}},{"base_weights":[3.0566271E-2,8.140151E-1,-4.573894E-1,4.8204756E-1,1.1143281E0,-6.754161E-1,6.1850935E-2,-1.3995717E-1,1.1324216E0,1.1592975E0,6.538493E-1,-1.0545775E0,4.780202E-1,-9.113242E-1,6.120483E-2,1.1919352E0,5.151799E-1,1.17833E0,1.2857711E-1,-5.812948E-2,1.0643073E0,-1.0832533E0,6.1789114E-2,3.48514E-2,8.0009454E-1,-5.8223218E-2,4.2621534E-2,4.2488467E-2,6.1636437E-2,-7.678748E-2,5.920386E-2,5.323059E-2,6.1874624E-2,-5.5669107E-2,5.0961394E-2,-3.4821317E-2,5.7102602E-2,-3.620569E-2,-5.8971893E-2,3.2380607E-2,-4.94565E-2,-8.5980974E-2,4.3161035E-2],"categories":[],"categories_nodes":[],"categories_segments":[],"categories_sizes":[],"default_left":[0,0,0,0,0,0,0,0,0,0,0,0,0,0,0,0,0,0,0,0,0,0,0,0,0,0,0,0,0,0,0,0,0,0,0,0,0,0,0,0,0,0,0],"id":19,"left_children":[1,3,5,7,9,11,-1,13,15,17,19,21,23,25,-1,27,29,31,33,-1,35,37,-1,39,41,-1,-1,-1,-1,-1,-1,-1,-1,-1,-1,-1,-1,-1,-1,-1,-1,-1,-1],"loss_changes":[8.5861566E2,8.539728E1,5.1213446E2,1.6649367E2,8.597717E0,5.3707294E2,0E0,2.2319159E2,6.7736816E0,7.897644E0,3.291702E1,6.200354E1,4.339438E1,6.144304E1,0E0,1.5021667E0,2.8497189E1,1.392273E0,1.0605244E1,0E0,5.6111717E0,3.0677002E1,0E0,8.163566E1,2.9500366E1,0E0,0E0,0E0,0E0,0E0,0E0,0E0,0E0,0E0,0E0,0E0,0E0,0E0,0E0,0E0,0E0,0E0,0E0],"parents":[2147483647,0,0,1,1,2,2,3,3,4,4,5,5,7,7,8,8,9,9,10,10,11,11,12,12,13,13,15,15,16,16,17,17,18,18,20,20,21,21,23,23,24,24],"right_children":[2,4,6,8,10,12,-1,14,16,18,20,22,24,26,-1,28,30,32,34,-1,36,38,-1,40,42,-1,-1,-1,-1,-1,-1,-1,-1,-1,-1,-1,-1,-1,-1,-1,-1,-1,-1],"split_conditions":[1.386E3,3.016E2,1E0,1.05549E4,3.123E2,2.02E2,6.1850935E-2,1E0,1E0,1.382E3,5.67E1,1.0783E4,2.14E2,2.03E2,6.120483E-2,1.1076E4,1.22664E4,3.023E2,2.18E2,-5.812948E-2,6.384E3,1.44E3,6.1789114E-2,3.13071E5,2.973E2,-5.8223218E-2,4.2621534E-2,4.2488467E-2,6.1636437E-2,-7.678748E-2,5.920386E-2,5.323059E-2,6.1874624E-2,-5.5669107E-2,5.0961394E-2,-3.4821317E-2,5.7102602E-2,-3.620569E-2,-5.8971893E-2,3.2380607E-2,-4.94565E-2,-8.5980974E-2,4.3161035E-2],"split_indices":[2,0,14,9,1,4,0,14,6,2,3,9,4,4,0,9,9,0,4,0,9,2,0,10,0,0,0,0,0,0,0,0,0,0,0,0,0,0,0,0,0,0,0],"split_type":[0,0,0,0,0,0,0,0,0,0,0,0,0,0,0,0,0,0,0,0,0,0,0,0,0,0,0,0,0,0,0,0,0,0,0,0,0,0,0,0,0,0,0],"sum_hessian":[2.244016E3,8.609804E2,1.3830356E3,4.1017548E2,4.508049E2,1.2258959E3,1.5713983E2,2.1006158E2,2.0011389E2,4.0931448E2,4.1490425E1,9.2267633E2,3.0321954E2,1.3439413E2,7.566746E1,1.8166678E2,1.8447117E1,4.0175287E2,7.5616217E0,7.309699E0,3.4180725E1,9.117876E2,1.0888706E1,1.2808498E2,1.7513455E2,1.1782348E2,1.6570654E1,2.1676971E1,1.599898E2,4.218053E0,1.4229063E1,1.4398659E2,2.5776627E2,3.0535507E0,4.508071E0,1.1089008E0,3.3071823E1,1.9441148E2,7.173761E2,8.036269E1,4.7722286E1,3.6390498E0,1.714955E2],"tree_param":{"num_deleted":"0","num_feature":"15","num_nodes":"43","size_leaf_vector":"1"}},{"base_weights":[5.3011335E-2,7.96111E-1,-3.8938093E-1,1.1934421E0,5.2451444E-1,-6.023566E-1,6.1169364E-2,1.2057748E0,-4.839333E-2,-4.7468203E-1,9.331529E-1,-9.2243797E-1,3.1251705E-1,6.0554367E-2,3.5505578E-2,-6.2110282E-2,6.197544E-1,6.6541684E-1,1.1862121E0,-4.63391E-1,-1.0517658E0,4.7482583E-3,1.0996554E0,-6.4758584E-2,4.204446E-2,-2.727387E-2,6.098292E-2,6.0821462E-2,4.797739E-2,-6.161141E-2,1.8614938E-2,-5.386416E-2,6.2016327E-2,1.8250758E-2,-6.7602016E-2,2.874004E-2,6.00394E-2],"categories":[],"categories_nodes":[],"categories_segments":[],"categories_sizes":[],"default_left":[0,0,0,0,0,0,0,0,0,0,0,0,0,0,0,0,0,0,0,0,0,0,0,0,0,0,0,0,0,0,0,0,0,0,0,0,0],"id":20,"left_children":[1,3,5,7,9,11,-1,13,-1,15,17,19,21,-1,-1,-1,23,25,27,29,31,33,35,-1,-1,-1,-1,-1,-1,-1,-1,-1,-1,-1,-1,-1,-1],"loss_changes":[7.23374E2,8.79837E1,4.745249E2,1.0032532E1,2.0031598E2,3.5729343E2,0E0,1.1993408E-2,0E0,1.2067977E2,2.2772736E1,5.3145874E1,7.672444E1,0E0,0E0,0E0,2.6289032E1,1.1560219E2,4.852295E-2,1.29193E2,4.2514465E1,1.12285164E2,4.0352554E0,0E0,0E0,0E0,0E0,0E0,0E0,0E0,0E0,0E0,0E0,0E0,0E0,0E0,0E0],"parents":[2147483647,0,0,1,1,2,2,3,3,4,4,5,5,7,7,9,9,10,10,11,11,12,12,16,16,17,17,18,18,19,19,20,20,21,21,22,22],"right_children":[2,4,6,8,10,12,-1,14,-1,16,18,20,22,-1,-1,-1,24,26,28,30,32,34,36,-1,-1,-1,-1,-1,-1,-1,-1,-1,-1,-1,-1,-1,-1],"split_conditions":[1.386E3,8.7E0,1E0,1.382E3,7.705698E3,1.1845476E6,6.1169364E-2,3.12E2,-4.839333E-2,9.1908E3,1.5336292E6,5.142337E3,1.02896E4,6.0554367E-2,3.5505578E-2,-6.2110282E-2,1E0,1E0,1E0,7.342039E5,3.044E2,6.830524E3,1E0,-6.4758584E-2,4.204446E-2,-2.727387E-2,6.098292E-2,6.0821462E-2,4.797739E-2,-6.161141E-2,1.8614938E-2,-5.386416E-2,6.2016327E-2,1.8250758E-2,-6.7602016E-2,2.874004E-2,6.00394E-2],"split_indices":[2,7,14,2,8,11,0,1,0,9,11,8,9,0,0,0,5,14,6,11,0,8,5,0,0,0,0,0,0,0,0,0,0,0,0,0,0],"split_type":[0,0,0,0,0,0,0,0,0,0,0,0,0,0,0,0,0,0,0,0,0,0,0,0,0,0,0,0,0,0,0,0,0,0,0,0,0],"sum_hessian":[2.198491E3,8.2011664E2,1.3783743E3,3.3160385E2,4.8851282E2,1.2181383E3,1.6023592E2,3.3016202E2,1.4418337E0,1.4174892E2,3.467639E2,9.024094E2,3.1572888E2,3.2523282E2,4.9291987E0,8.323885E1,5.8510067E1,1.7025934E2,1.7650455E2,1.9936163E2,7.030478E2,2.277035E2,8.8025375E1,5.554418E0,5.295565E1,5.346532E1,1.16794014E2,1.518892E2,2.4615349E1,1.0358688E2,9.577476E1,6.958313E2,7.2165303E0,1.805051E2,4.7198395E1,1.530091E1,7.2724464E1],"tree_param":{"num_deleted":"0","num_feature":"15","num_nodes":"37","size_leaf_vector":"1"}},{"base_weights":[-3.3755902E-2,7.318427E-1,-4.7585416E-1,4.453352E-1,6.0501155E-2,-6.843624E-1,6.038248E-2,-1.5581928E-1,1.1030371E0,-9.202202E-1,8.678899E-2,-1.0195134E0,5.9997577E-2,1.1600702E0,5.660234E-1,-9.389239E-1,5.994579E-2,-1.9108674E-1,1.1868345E0,-5.72505E-2,4.2373218E-2,4.071158E-2,6.0316246E-2,-7.970523E-2,5.8730405E-2,-2.9517157E-2,-5.15872E-2,1.7238684E-2,-4.0101502E-2,3.380363E-2,6.1617624E-2],"categories":[],"categories_nodes":[],"categories_segments":[],"categories_sizes":[],"default_left":[0,0,0,0,0,0,0,0,0,0,0,0,0,0,0,0,0,0,0,0,0,0,0,0,0,0,0,0,0,0,0],"id":21,"left_children":[1,3,5,7,-1,9,-1,11,13,15,17,19,-1,21,23,25,-1,27,29,-1,-1,-1,-1,-1,-1,-1,-1,-1,-1,-1,-1],"loss_changes":[6.883174E2,1.0145343E2,4.5334232E2,1.8485886E2,0E0,2.0882568E2,0E0,2.8802176E2,6.179077E0,3.59646E1,8.267477E1,3.61512E1,0E0,2.230011E0,3.260914E1,2.7599731E1,0E0,7.105338E1,4.3465424E-1,0E0,0E0,0E0,0E0,0E0,0E0,0E0,0E0,0E0,0E0,0E0,0E0],"parents":[2147483647,0,0,1,1,2,2,3,3,5,5,7,7,8,8,9,9,10,10,11,11,13,13,14,14,15,15,17,17,18,18],"right_children":[2,4,6,8,-1,10,-1,12,14,16,18,20,-1,22,24,26,-1,28,30,-1,-1,-1,-1,-1,-1,-1,-1,-1,-1,-1,-1],"split_conditions":[1.386E3,1E0,1E0,1.05549E4,6.0501155E-2,1.1902726E6,6.038248E-2,1E0,1E0,3.044E2,1.6484411E6,1.385E3,5.9997577E-2,1.1076E4,1.22664E4,2.92E1,5.994579E-2,4.14E1,1E0,-5.72505E-2,4.2373218E-2,4.071158E-2,6.0316246E-2,-7.970523E-2,5.8730405E-2,-2.9517157E-2,-5.15872E-2,1.7238684E-2,-4.0101502E-2,3.380363E-2,6.1617624E-2],"split_indices":[2,13,14,9,0,11,0,14,6,0,11,2,0,9,9,3,0,3,5,0,0,0,0,0,0,0,0,0,0,0,0],"split_type":[0,0,0,0,0,0,0,0,0,0,0,0,0,0,0,0,0,0,0,0,0,0,0,0,0,0,0,0,0,0,0],"sum_hessian":[2.0315864E3,7.4345734E2,1.288129E3,4.6611203E2,2.773453E2,1.1466995E3,1.4142957E2,2.439235E2,2.2218852E2,8.77976E2,2.687235E2,1.4915335E2,9.477015E1,1.9980788E2,2.2380653E1,8.7084674E2,7.1292553E0,2.1519157E2,5.3531933E1,1.4012122E2,9.032122E0,2.5765665E1,1.740422E2,4.5634937E0,1.781716E1,1.8467386E2,6.861729E2,1.1487234E2,1.00319244E2,5.6774716E0,4.7854458E1],"tree_param":{"num_deleted":"0","num_feature":"15","num_nodes":"31","size_leaf_vector":"1"}},{"base_weights":[-1.3471459E-2,7.396537E-1,-4.2722526E-1,3.6987895E-1,1.0641426E0,-6.389699E-1,5.9850045E-2,-1.4469728E-1,5.691866E-2,1.1801838E0,8.4098077E-1,-1.0193661E0,5.3845805E-1,-8.2647085E-1,5.915458E-2,5.972084E-2,-4.5681622E-2,1.6452253E-1,1.078561E0,-1.0455997E0,9.572769E-1,3.3759964E-1,1.0209829E0,-5.7229143E-2,2.4204612E-2,-1.765568E-2,5.534779E-2,1.2819915E-1,4.473903E-2,-4.258956E-2,-5.8888614E-2,3.1104306E-2,5.700624E-2,2.7315859E-2,-1.3111082E-2,-7.052842E-2,5.489592E-2],"categories":[],"categories_nodes":[],"categories_segments":[],"categories_sizes":[],"default_left":[0,0,0,0,0,0,0,0,0,0,0,0,0,0,0,0,0,0,0,0,0,0,0,0,0,0,0,0,0,0,0,0,0,0,0,0,0],"id":22,"left_children":[1,3,5,7,9,11,-1,13,-1,15,17,19,21,23,-1,-1,-1,25,27,29,31,33,35,-1,-1,-1,-1,-1,-1,-1,-1,-1,-1,-1,-1,-1,-1],"loss_changes":[6.2365625E2,8.475809E1,4.450169E2,1.3193709E2,8.781891E0,5.126663E2,0E0,1.82454E2,0E0,8.417725E0,2.1133728E1,4.5831543E1,2.6778648E1,5.6022026E1,0E0,0E0,0E0,1.778076E1,2.444722E1,2.0865295E1,1.6762733E-2,2.5068583E1,1.6843819E1,0E0,0E0,0E0,0E0,0E0,0E0,0E0,0E0,0E0,0E0,0E0,0E0,0E0,0E0],"parents":[2147483647,0,0,1,1,2,2,3,3,4,4,5,5,7,7,9,9,10,10,11,11,12,12,13,13,17,17,18,18,19,19,20,20,21,21,22,22],"right_children":[2,4,6,8,10,12,-1,14,-1,16,18,20,22,24,-1,-1,-1,26,28,30,32,34,36,-1,-1,-1,-1,-1,-1,-1,-1,-1,-1,-1,-1,-1,-1],"split_conditions":[1.386E3,3.016E2,1E0,1.1076E4,8.6E0,2.05E2,5.9850045E-2,1E0,5.691866E-2,1.382E3,8.825318E5,1.0783E4,2.25E2,2.61239E5,5.915458E-2,5.972084E-2,-4.5681622E-2,8.969059E3,6.4736E3,9.6E0,3.004E2,1.568E3,2.977E2,-5.7229143E-2,2.4204612E-2,-1.765568E-2,5.534779E-2,1.2819915E-1,4.473903E-2,-4.258956E-2,-5.8888614E-2,3.1104306E-2,5.700624E-2,2.7315859E-2,-1.3111082E-2,-7.052842E-2,5.489592E-2],"split_indices":[2,0,14,9,7,4,0,14,0,2,11,9,4,10,0,0,0,8,9,7,0,2,0,0,0,0,0,0,0,0,0,0,0,0,0,0,0],"split_type":[0,0,0,0,0,0,0,0,0,0,0,0,0,0,0,0,0,0,0,0,0,0,0,0,0,0,0,0,0,0,0,0,0,0,0,0,0],"sum_hessian":[1.9993962E3,7.086698E2,1.2907264E3,3.322223E2,3.7644754E2,1.1424021E3,1.4832434E2,1.9947049E2,1.3275179E2,2.4484366E2,1.3160387E2,8.635469E2,2.7885522E2,1.3204666E2,6.742383E1,2.4361717E2,1.2264773E0,3.464687E1,9.6957E1,8.5270105E2,1.0845823E1,1.9809483E2,8.07604E1,1.06357285E2,2.568938E1,2.2767193E1,1.1879678E1,9.249086E0,8.770792E1,3.4875528E2,5.0394574E2,5.3819723E0,5.4638505E0,1.4702449E2,5.1070354E1,1.9452796E0,7.881512E1],"tree_param":{"num_deleted":"0","num_feature":"15","num_nodes":"37","size_leaf_vector":"1"}},{"base_weights":[1.1028385E-2,7.554322E-1,-4.2123464E-1,5.10804E-1,5.9440006E-2,-6.28199E-1,5.9309732E-2,-4.6013612E-2,1.0847915E0,-1.048038E0,2.0349073E-1,-8.108967E-1,5.882145E-2,1.1346292E0,5.5197644E-1,-7.2590053E-1,-1.1516486E0,-4.7349986E-2,8.806908E-1,-5.0345223E-2,2.8805051E-2,3.778034E-2,5.9093338E-2,-7.908772E-2,5.7275303E-2,-4.287002E-2,6.131428E-2,-4.4413052E-2,-6.0058694E-2,3.0813375E-3,-8.814116E-2,5.035735E-2,-1.6323285E-2],"categories":[],"categories_nodes":[],"categories_segments":[],"categories_sizes":[],"default_left":[0,0,0,0,0,0,0,0,0,0,0,0,0,0,0,0,0,0,0,0,0,0,0,0,0,0,0,0,0,0,0,0,0],"id":23,"left_children":[1,3,5,7,-1,9,-1,11,13,15,17,19,-1,21,23,25,27,29,31,-1,-1,-1,-1,-1,-1,-1,-1,-1,-1,-1,-1,-1,-1],"loss_changes":[6.411516E2,7.699228E1,4.201102E2,1.501445E2,0E0,3.9039175E2,0E0,2.2473952E2,5.515381E0,2.3954285E1,6.386004E1,4.0764694E1,0E0,2.87677E0,2.9332369E1,4.8147423E1,6.241516E0,5.1536537E1,1.5837769E1,0E0,0E0,0E0,0E0,0E0,0E0,0E0,0E0,0E0,0E0,0E0,0E0,0E0,0E0],"parents":[2147483647,0,0,1,1,2,2,3,3,5,5,7,7,8,8,9,9,10,10,11,11,13,13,14,14,15,15,16,16,17,17,18,18],"right_children":[2,4,6,8,-1,10,-1,12,14,16,18,20,-1,22,24,26,28,30,32,-1,-1,-1,-1,-1,-1,-1,-1,-1,-1,-1,-1,-1,-1],"split_conditions":[1.386E3,1E0,1E0,1.05549E4,5.9440006E-2,2.90411E5,5.9309732E-2,1E0,1E0,1.44E3,4.42E1,2.7264E5,5.882145E-2,1.1076E4,1.22664E4,1.438E3,5.070091E3,4.1E1,1E0,-5.0345223E-2,2.8805051E-2,3.778034E-2,5.9093338E-2,-7.908772E-2,5.7275303E-2,-4.287002E-2,6.131428E-2,-4.4413052E-2,-6.0058694E-2,3.0813375E-3,-8.814116E-2,5.035735E-2,-1.6323285E-2],"split_indices":[2,13,14,9,0,10,0,14,6,2,3,10,0,9,9,2,8,3,6,0,0,0,0,0,0,0,0,0,0,0,0,0,0],"split_type":[0,0,0,0,0,0,0,0,0,0,0,0,0,0,0,0,0,0,0,0,0,0,0,0,0,0,0,0,0,0,0,0,0],"sum_hessian":[1.9905375E3,7.3097375E2,1.2595637E3,4.6862323E2,2.6235052E2,1.1164275E3,1.4313628E2,2.3833626E2,2.3028696E2,7.417368E2,3.7469067E2,1.4681235E2,9.152391E1,2.0955626E2,2.07307E1,1.8245848E2,5.592783E2,2.74094E2,1.0059668E2,1.2887415E2,1.7938204E1,2.5106167E1,1.8445009E2,4.1492405E0,1.6581459E1,1.7146907E2,1.0989407E1,9.1515E1,4.6776334E2,2.586285E2,1.5465496E1,9.1207855E1,9.3888235E0],"tree_param":{"num_deleted":"0","num_feature":"15","num_nodes":"33","size_leaf_vector":"1"}},{"base_weights":[1.8056601E-2,7.5482637E-1,-3.6217794E-1,4.952204E-1,5.887587E-2,-6.970245E-1,5.623813E-1,-6.8981504E-1,8.004636E-1,5.6910675E-2,-8.679121E-1,-7.940821E-2,5.8907217E-1,-6.0390513E-2,7.354197E-1,4.0319088E-1,1.1142265E0,-9.9430007E-1,9.3175054E-1,4.497244E-1,9.4834524E-1,-7.2517656E-2,5.6053717E-2,-3.6794208E-2,5.7094175E-2,5.8184844E-2,3.2916196E-2,-3.0461306E-2,-5.5343222E-2,2.632176E-3,5.6479163E-2,2.7071286E-2,-8.808312E-2,7.202528E-2,3.6569636E-2],"categories":[],"categories_nodes":[],"categories_segments":[],"categories_sizes":[],"default_left":[0,0,0,0,0,0,0,0,0,0,0,0,0,0,0,0,0,0,0,0,0,0,0,0,0,0,0,0,0,0,0,0,0,0,0],"id":24,"left_children":[1,3,5,7,-1,9,11,13,15,-1,17,-1,19,-1,21,23,25,27,29,31,33,-1,-1,-1,-1,-1,-1,-1,-1,-1,-1,-1,-1,-1,-1],"loss_changes":[5.327468E2,7.045096E1,3.8872662E2,1.462392E2,0E0,2.899282E2,2.0110626E1,6.218714E1,3.9529083E1,0E0,1.9276172E2,0E0,1.6129387E1,0E0,2.0807055E1,1.21244865E2,3.26268E0,3.350525E1,9.655514E0,4.9659E1,8.7181015E0,0E0,0E0,0E0,0E0,0E0,0E0,0E0,0E0,0E0,0E0,0E0,0E0,0E0,0E0],"parents":[2147483647,0,0,1,1,2,2,3,3,5,5,6,6,7,7,8,8,10,10,12,12,14,14,15,15,16,16,17,17,18,18,19,19,20,20],"right_children":[2,4,6,8,-1,10,12,14,16,-1,18,-1,20,-1,22,24,26,28,30,32,34,-1,-1,-1,-1,-1,-1,-1,-1,-1,-1,-1,-1,-1,-1],"split_conditions":[1.382E3,1E0,2.02E2,7.4493447E3,5.887587E-2,3.5364385E3,2.969E2,2.07E2,1.0783E4,5.6910675E-2,5.75E1,-7.940821E-2,4.59E1,-6.0390513E-2,1.09E1,8.969059E3,1E0,1.44E3,8.969059E3,1.4264739E6,6.830524E3,-7.2517656E-2,5.6053717E-2,-3.6794208E-2,5.7094175E-2,5.8184844E-2,3.2916196E-2,-3.0461306E-2,-5.5343222E-2,2.632176E-3,5.6479163E-2,2.7071286E-2,-8.808312E-2,7.202528E-2,3.6569636E-2],"split_indices":[2,13,4,8,0,8,0,4,9,0,3,0,3,0,7,8,6,2,8,11,8,0,0,0,0,0,0,0,0,0,0,0,0,0,0],"split_type":[0,0,0,0,0,0,0,0,0,0,0,0,0,0,0,0,0,0,0,0,0,0,0,0,0,0,0,0,0,0,0,0,0,0,0],"sum_hessian":[1.8997043E3,6.463347E2,1.2533698E3,4.017573E2,2.4457741E2,9.2030865E2,3.3306104E2,8.2031044E1,3.1972623E2,7.791239E1,8.4239624E2,3.3658304E0,3.296952E2,6.027641E1,2.1754639E1,1.4209578E2,1.7763045E2,7.8753613E2,5.486012E1,2.3917897E2,9.0516235E1,2.848643E0,1.8905994E1,5.590038E1,8.619541E1,1.5884186E2,1.8788603E1,1.7958887E2,6.0794727E2,1.03103285E1,4.454979E1,2.3038075E2,8.798216E0,2.5967903E1,6.454833E1],"tree_param":{"num_deleted":"0","num_feature":"15","num_nodes":"35","size_leaf_vector":"1"}},{"base_weights":[3.0246662E-2,7.577607E-1,-3.5282898E-1,4.746597E-1,5.83208E-2,-6.7220837E-1,5.456835E-1,-3.7845945E-1,8.48039E-1,-9.5335585E-1,5.7959028E-2,3.535055E-1,9.669034E-1,-1.0326108E0,5.5718374E-2,6.1437005E-1,5.8182348E-2,-4.9237236E-1,-1.0964807E0,-9.583696E-2,4.2587385E-1,-4.898078E-2,9.9904E-1,2.0865098E-2,-6.140211E-2,-5.8986496E-2,4.7085993E-2,-3.7614018E-2,1.0590728E-1,-3.7270363E-2,-5.934726E-2,2.3854874E-2,-8.254682E-2,7.0142835E-2,4.2046573E-2],"categories":[],"categories_nodes":[],"categories_segments":[],"categories_sizes":[],"default_left":[0,0,0,0,0,0,0,0,0,0,0,0,0,0,0,0,0,0,0,0,0,0,0,0,0,0,0,0,0,0,0,0,0,0,0],"id":25,"left_children":[1,3,5,7,-1,9,11,13,15,17,-1,19,21,23,-1,25,-1,27,29,-1,31,-1,33,-1,-1,-1,-1,-1,-1,-1,-1,-1,-1,-1,-1],"loss_changes":[5.208347E2,7.4021576E1,3.516941E2,1.221578E2,0E0,4.6639807E2,2.5691986E1,1.1553358E2,1.8928375E1,5.1184204E1,0E0,3.7359077E1,7.245598E0,2.3737167E1,0E0,9.223875E1,0E0,1.2884474E2,1.8088623E1,0E0,2.3805523E1,0E0,5.144409E0,0E0,0E0,0E0,0E0,0E0,0E0,0E0,0E0,0E0,0E0,0E0,0E0],"parents":[2147483647,0,0,1,1,2,2,3,3,5,5,6,6,7,7,8,8,9,9,11,11,12,12,13,13,15,15,17,17,18,18,20,20,22,22],"right_children":[2,4,6,8,-1,10,12,14,16,18,-1,20,22,24,-1,26,-1,28,30,-1,32,-1,34,-1,-1,-1,-1,-1,-1,-1,-1,-1,-1,-1,-1],"split_conditions":[1.382E3,1E0,2.03E2,7.705698E3,5.83208E-2,1E0,4.59E1,1.0069091E0,1E0,1.44E3,5.7959028E-2,1.424E3,2.971E2,6.152851E3,5.5718374E-2,1.19E2,5.8182348E-2,1.438E3,5.1037266E3,-9.583696E-2,3.121E2,-4.898078E-2,6.830524E3,2.0865098E-2,-6.140211E-2,-5.8986496E-2,4.7085993E-2,-3.7614018E-2,1.0590728E-1,-3.7270363E-2,-5.934726E-2,2.3854874E-2,-8.254682E-2,7.0142835E-2,4.2046573E-2],"split_indices":[2,13,4,8,0,14,3,12,14,2,0,2,0,8,0,4,0,2,8,0,1,0,8,0,0,0,0,0,0,0,0,0,0,0,0],"split_type":[0,0,0,0,0,0,0,0,0,0,0,0,0,0,0,0,0,0,0,0,0,0,0,0,0,0,0,0,0,0,0,0,0,0,0],"sum_hessian":[1.8668889E3,6.436085E2,1.2232804E3,3.814889E2,2.6211963E2,9.026737E2,3.2060663E2,1.1613138E2,2.653575E2,7.829568E2,1.1971696E2,2.2142334E2,9.918329E1,8.096229E1,3.5169094E1,1.5416438E2,1.1119312E2,1.8654947E2,5.964073E2,6.0529304E0,2.153704E2,1.1320486E0,9.805124E1,9.481725E0,7.148056E1,2.3386505E1,1.3077788E2,1.7030539E2,1.6244093E1,1.24087906E2,4.723194E2,2.1093799E2,4.43242E0,2.5373466E1,7.267777E1],"tree_param":{"num_deleted":"0","num_feature":"15","num_nodes":"35","size_leaf_vector":"1"}},{"base_weights":[4.3215733E-2,-3.9593643E-1,5.435949E-1,-7.4250597E-1,5.7690394E-1,2.7630648E-1,1.0831528E0,-9.3880206E-1,5.7145204E-2,6.1426467E-1,-7.8364335E-2,-1.6597673E-1,5.7678062E-2,1.1285453E0,6.973252E-1,-1.0225207E0,5.6418102E-2,6.419183E-1,-8.108434E-2,-6.933322E-1,5.7585236E-2,8.9200854E-1,1.1596465E0,-9.019027E-2,5.7719734E-2,-3.9323717E-2,-5.935011E-2,2.4358507E-2,5.7384502E-2,-2.7709876E-3,-5.410415E-2,-7.090031E-2,5.1492818E-2,3.673007E-2,5.861456E-2],"categories":[],"categories_nodes":[],"categories_segments":[],"categories_sizes":[],"default_left":[0,0,0,0,0,0,0,0,0,0,0,0,0,0,0,0,0,0,0,0,0,0,0,0,0,0,0,0,0,0,0,0,0,0,0],"id":26,"left_children":[1,3,5,7,9,11,13,15,-1,17,-1,19,-1,21,23,25,-1,27,-1,29,-1,31,33,-1,-1,-1,-1,-1,-1,-1,-1,-1,-1,-1,-1],"loss_changes":[4.0459818E2,3.3106787E2,1.2381261E2,2.688447E2,2.1643188E1,2.2400195E2,4.2000427E0,1.1465326E2,0E0,1.6774338E1,0E0,2.6789044E2,0E0,8.279724E-1,3.9340347E1,2.3558899E1,0E0,1.9168968E1,0E0,6.816937E1,0E0,1.2207811E1,3.234558E-1,0E0,0E0,0E0,0E0,0E0,0E0,0E0,0E0,0E0,0E0,0E0,0E0],"parents":[2147483647,0,0,1,1,2,2,3,3,4,4,5,5,6,6,7,7,9,9,11,11,13,13,14,14,15,15,17,17,19,19,21,21,22,22],"right_children":[2,4,6,8,10,12,14,16,-1,18,-1,20,-1,22,24,26,-1,28,-1,30,-1,32,34,-1,-1,-1,-1,-1,-1,-1,-1,-1,-1,-1,-1],"split_conditions":[4.63E1,2.05E2,1.0783E4,1E0,1.16E1,1E0,1E0,1E0,5.7145204E-2,2.35E2,-7.8364335E-2,1E0,5.7678062E-2,1.1076E4,1.22664E4,9.6E0,5.6418102E-2,2.25E2,-8.108434E-2,4.87E1,5.7585236E-2,7.5362827E3,1E0,-9.019027E-2,5.7719734E-2,-3.9323717E-2,-5.935011E-2,2.4358507E-2,5.7384502E-2,-2.7709876E-3,-5.410415E-2,-7.090031E-2,5.1492818E-2,3.673007E-2,5.861456E-2],"split_indices":[3,4,9,14,7,13,6,13,0,4,0,14,0,9,9,7,0,4,0,3,0,8,5,0,0,0,0,0,0,0,0,0,0,0,0],"split_type":[0,0,0,0,0,0,0,0,0,0,0,0,0,0,0,0,0,0,0,0,0,0,0,0,0,0,0,0,0,0,0,0,0,0,0],"sum_hessian":[1.8392576E3,9.796699E2,8.5958765E2,7.225145E2,2.5715543E2,5.758385E2,2.8374915E2,6.548392E2,6.7675354E1,2.5345273E2,3.7026815E0,3.8336777E2,1.9247072E2,2.5215785E2,3.1591293E1,6.298366E2,2.500254E1,2.510606E2,2.3921356E0,2.7413052E2,1.0923724E2,3.275138E1,2.1940646E2,4.425894E0,2.71654E1,2.610242E2,3.688124E2,1.937448E2,5.7315796E1,1.0423343E2,1.698971E2,1.3213758E0,3.1430006E1,8.045832E0,2.1136063E2],"tree_param":{"num_deleted":"0","num_feature":"15","num_nodes":"35","size_leaf_vector":"1"}},{"base_weights":[-2.5561405E-2,-6.510749E-1,4.783145E-1,-8.2687384E-1,9.9499327E-1,2.665672E-1,5.7322353E-2,-1.0400921E0,-4.288778E-2,2.3398885E-1,5.6630302E-2,-1.2128407E-1,1.0169791E0,-5.768825E-1,-1.136788E0,-6.569903E-2,1.3983439E-1,-5.4468013E-2,6.572475E-2,-5.491653E-1,5.7085533E-2,-6.315926E-2,1.045129E0,-5.8206063E-2,1.0274581E-1,-5.7763636E-2,4.576603E-2,6.694953E-2,-3.9032653E-3,1.6996264E-2,-4.1963182E-2,3.587996E-2,5.6335147E-2],"categories":[],"categories_nodes":[],"categories_segments":[],"categories_sizes":[],"default_left":[0,0,0,0,0,0,0,0,0,0,0,0,0,0,0,0,0,0,0,0,0,0,0,0,0,0,0,0,0,0,0,0,0],"id":27,"left_children":[1,3,5,7,9,11,-1,13,15,17,-1,19,21,23,25,-1,27,-1,-1,29,-1,-1,31,-1,-1,-1,-1,-1,-1,-1,-1,-1,-1],"loss_changes":[5.4076825E2,2.2232852E2,1.3413727E2,1.1565378E2,7.5176163E0,2.1052293E2,0E0,2.3715088E1,3.479789E1,1.9507128E1,0E0,2.5865997E2,1.7137512E1,1.5075653E2,1.8093323E1,0E0,3.438822E1,0E0,0E0,9.244747E1,0E0,0E0,5.709839E0,0E0,0E0,0E0,0E0,0E0,0E0,0E0,0E0,0E0,0E0],"parents":[2147483647,0,0,1,1,2,2,3,3,4,4,5,5,7,7,8,8,9,9,11,11,12,12,13,13,14,14,16,16,19,19,22,22],"right_children":[2,4,6,8,10,12,-1,14,16,18,-1,20,22,24,26,-1,28,-1,-1,30,-1,-1,32,-1,-1,-1,-1,-1,-1,-1,-1,-1,-1],"split_conditions":[4.43E1,2.261E3,1E0,3.22465E5,1E0,1.5336292E6,5.7322353E-2,5.1037266E3,9.609874E5,3.0276E3,5.6630302E-2,1E0,1.02896E4,5.046162E3,1E0,-6.569903E-2,2.35E1,-5.4468013E-2,6.572475E-2,6.830524E3,5.7085533E-2,-6.315926E-2,1E0,-5.8206063E-2,1.0274581E-1,-5.7763636E-2,4.576603E-2,6.694953E-2,-3.9032653E-3,1.6996264E-2,-4.1963182E-2,3.587996E-2,5.6335147E-2],"split_indices":[3,2,13,10,14,11,0,8,11,9,0,14,9,8,13,0,3,0,0,8,0,0,5,0,0,0,0,0,0,0,0,0,0],"split_type":[0,0,0,0,0,0,0,0,0,0,0,0,0,0,0,0,0,0,0,0,0,0,0,0,0,0,0,0,0,0,0,0,0],"sum_hessian":[1.7137496E3,7.644573E2,9.4929236E2,6.911415E2,7.331577E1,7.219029E2,2.2738943E2,5.431076E2,1.4803392E2,1.164098E1,6.1674793E1,4.7647476E2,2.4542816E2,9.499799E1,4.481096E2,1.7827452E1,1.3020647E2,5.228807E0,6.4121723E0,3.5632355E2,1.20151215E2,2.4579558E0,2.429702E2,7.812375E1,1.6874247E1,4.4454233E2,3.5672596E0,1.9230616E1,1.10975845E2,8.761872E1,2.6870483E2,5.04009E1,1.925693E2],"tree_param":{"num_deleted":"0","num_feature":"15","num_nodes":"33","size_leaf_vector":"1"}},{"base_weights":[8.889069E-3,-5.197555E-1,4.9092412E-1,-6.9606376E-1,5.6844532E-2,2.571969E-1,1.0590192E0,-1.088493E0,3.6334983E-1,1.017134E0,-1.4642052E-1,1.1028256E0,6.4184624E-1,-9.1297597E-1,-5.843231E-2,4.468534E-1,-8.1015974E-2,1.7796794E-1,9.391279E-1,-6.340662E-1,5.672407E-2,8.348022E-1,1.1403152E0,-8.691969E-2,5.6469437E-2,-1.0084136E-2,-5.2883785E-2,-1.0107461E-2,2.9536253E-2,4.7628995E-2,1.3885212E-2,1.2186072E-2,-4.343778E-2,-7.907269E-2,5.132233E-2,3.4959197E-2,5.7707388E-2],"categories":[],"categories_nodes":[],"categories_segments":[],"categories_sizes":[],"default_left":[0,0,0,0,0,0,0,0,0,0,0,0,0,0,0,0,0,0,0,0,0,0,0,0,0,0,0,0,0,0,0,0,0,0,0,0,0],"id":28,"left_children":[1,3,5,7,-1,9,11,13,15,17,19,21,23,25,-1,27,-1,-1,29,31,-1,33,35,-1,-1,-1,-1,-1,-1,-1,-1,-1,-1,-1,-1,-1,-1],"loss_changes":[4.317161E2,2.3679993E2,1.1738843E2,3.0427338E2,0E0,1.931255E2,4.006775E0,6.4400024E0,3.3573887E1,3.996173E1,2.5793127E2,1.3799744E0,3.3189625E1,1.747499E1,0E0,1.7962013E1,0E0,0E0,1.6326599E0,6.178412E1,0E0,1.6538738E1,4.187317E-1,0E0,0E0,0E0,0E0,0E0,0E0,0E0,0E0,0E0,0E0,0E0,0E0,0E0,0E0],"parents":[2147483647,0,0,1,1,2,2,3,3,5,5,6,6,7,7,8,8,9,9,10,10,11,11,12,12,13,13,15,15,18,18,19,19,21,21,22,22],"right_children":[2,4,6,8,-1,10,12,14,16,18,20,22,24,26,-1,28,-1,-1,30,32,-1,34,36,-1,-1,-1,-1,-1,-1,-1,-1,-1,-1,-1,-1,-1,-1],"split_conditions":[4.48E1,1E0,1.0783E4,2.05E2,5.6844532E-2,8.7E0,1E0,9.4E0,1.4264739E6,4.49E1,1E0,1.1076E4,1.22664E4,3.006E2,-5.843231E-2,9.3E0,-8.1015974E-2,1.7796794E-1,3.12E2,6.830524E3,5.672407E-2,7.5362827E3,1E0,-8.691969E-2,5.6469437E-2,-1.0084136E-2,-5.2883785E-2,-1.0107461E-2,2.9536253E-2,4.7628995E-2,1.3885212E-2,1.2186072E-2,-4.343778E-2,-7.907269E-2,5.132233E-2,3.4959197E-2,5.7707388E-2],"split_indices":[3,14,9,4,0,7,6,7,11,3,14,9,9,0,0,7,0,0,1,8,0,8,5,0,0,0,0,0,0,0,0,0,0,0,0,0,0],"split_type":[0,0,0,0,0,0,0,0,0,0,0,0,0,0,0,0,0,0,0,0,0,0,0,0,0,0,0,0,0,0,0,0,0,0,0,0,0],"sum_hessian":[1.6921643E3,8.0702606E2,8.8513824E2,7.299239E2,7.710218E1,6.281541E2,2.5698413E2,5.3260736E2,1.9731653E2,2.1736879E2,4.107853E2,2.3107578E2,2.5908365E1,1.7085808E2,3.617493E2,1.9008936E2,7.2271757E0,5.142569E0,2.1222623E2,2.9788428E2,1.12901024E2,3.1210514E1,1.9986526E2,3.9684246E0,2.1939941E1,2.9287052E1,1.4157103E2,3.4419315E1,1.5567004E2,2.0756459E2,4.661631E0,6.2833874E1,2.350504E2,1.7606153E0,2.94499E1,7.643853E0,1.922214E2],"tree_param":{"num_deleted":"0","num_feature":"15","num_nodes":"37","size_leaf_vector":"1"}},{"base_weights":[4.406583E-2,7.3224294E-1,-3.2579854E-1,4.6459138E-1,5.671012E-2,-6.32171E-1,4.8289582E-1,-6.553064E-1,7.5529635E-1,-8.7678766E-1,5.6169E-2,3.738068E-1,1.0777032E0,-5.8482673E-2,6.9237804E-1,3.6208352E-1,1.0528975E0,-9.1878366E-1,5.2424084E-2,4.1976085E-1,-8.354388E-2,2.6362523E-2,5.6497782E-2,5.0138157E-2,-6.413781E-2,-3.3214416E-2,5.6065917E-2,3.7719082E-2,5.5412304E-2,-2.6416091E-2,-5.223147E-2,4.2802397E-2,8.057119E-3],"categories":[],"categories_nodes":[],"categories_segments":[],"categories_sizes":[],"default_left":[0,0,0,0,0,0,0,0,0,0,0,0,0,0,0,0,0,0,0,0,0,0,0,0,0,0,0,0,0,0,0,0,0],"id":29,"left_children":[1,3,5,7,-1,9,11,13,15,17,-1,19,21,-1,23,25,27,29,-1,31,-1,-1,-1,-1,-1,-1,-1,-1,-1,-1,-1,-1,-1],"loss_changes":[4.238329E2,6.2095306E1,2.6866455E2,1.14800606E2,0E0,3.3850906E2,1.8944237E1,5.1337704E1,3.2292282E1,5.678534E1,0E0,2.4519436E1,7.180481E-1,0E0,1.4015318E1,9.566463E1,1.781189E0,3.2675354E1,0E0,2.7925022E1,0E0,0E0,0E0,0E0,0E0,0E0,0E0,0E0,0E0,0E0,0E0,0E0,0E0],"parents":[2147483647,0,0,1,1,2,2,3,3,5,5,6,6,7,7,8,8,9,9,11,11,12,12,14,14,15,15,16,16,17,17,19,19],"right_children":[2,4,6,8,-1,10,12,14,16,18,-1,20,22,-1,24,26,28,30,-1,32,-1,-1,-1,-1,-1,-1,-1,-1,-1,-1,-1,-1,-1],"split_conditions":[1.382E3,1E0,2.03E2,7.4493447E3,5.671012E-2,1E0,1.6484411E6,2.07E2,1.0783E4,1.0783E4,5.6169E-2,7.358563E3,1E0,-5.8482673E-2,2.993E2,1E0,1E0,1.44E3,5.2424084E-2,3.13071E5,-8.354388E-2,2.6362523E-2,5.6497782E-2,5.0138157E-2,-6.413781E-2,-3.3214416E-2,5.6065917E-2,3.7719082E-2,5.5412304E-2,-2.6416091E-2,-5.223147E-2,4.2802397E-2,8.057119E-3],"split_indices":[2,13,4,8,0,14,11,4,9,9,0,8,5,0,0,14,5,2,0,10,0,0,0,0,0,0,0,0,0,0,0,0,0],"split_type":[0,0,0,0,0,0,0,0,0,0,0,0,0,0,0,0,0,0,0,0,0,0,0,0,0,0,0,0,0,0,0,0,0],"sum_hessian":[1.6632072E3,5.810724E2,1.0821348E3,3.501049E2,2.3096751E2,7.8496893E2,2.9716583E2,7.189311E1,2.782118E2,6.894081E2,9.556085E1,2.5248749E2,4.4678337E1,5.2129765E1,1.9763348E1,1.2080797E2,1.5740382E2,6.7520264E2,1.4205446E1,2.4771483E2,4.7726564E0,4.8349605E0,3.9843376E1,1.7504835E1,2.258514E0,5.1420376E1,6.938759E1,2.690811E1,1.3049571E2,1.6584207E2,5.0936057E2,9.133069E1,1.5638414E2],"tree_param":{"num_deleted":"0","num_feature":"15","num_nodes":"33","size_leaf_vector":"1"}},{"base_weights":[2.113619E-3,6.67631E-1,-3.503857E-1,4.0191236E-1,5.6301363E-2,-6.434013E-1,4.8078975E-1,-4.610597E-1,8.057651E-1,-8.8185596E-1,5.5771917E-2,3.046857E-1,9.645281E-1,-5.7266917E-2,5.6300026E-1,2.028769E0,7.304429E-1,-3.509995E-1,-1.0571126E0,-1.1606498E-1,5.81994E-1,1.0797961E0,-1.4250143E-1,-6.634179E-2,3.725895E-2,1.8674593E-1,2.9093716E-2,1.711491E-2,5.3111535E-2,-3.140929E-2,1.13978565E-1,-5.709466E-2,-2.4894884E-2,6.064036E-2,-2.7325546E-2,3.5482112E-2,-1.0042288E-1,-5.0080318E-2,5.668814E-2,-8.44746E-2,4.868507E-2],"categories":[],"categories_nodes":[],"categories_segments":[],"categories_sizes":[],"default_left":[0,0,0,0,0,0,0,0,0,0,0,0,0,0,0,0,0,0,0,0,0,0,0,0,0,0,0,0,0,0,0,0,0,0,0,0,0,0,0,0,0],"id":30,"left_children":[1,3,5,7,-1,9,11,13,15,17,-1,19,21,-1,23,25,27,29,31,33,35,37,39,-1,-1,-1,-1,-1,-1,-1,-1,-1,-1,-1,-1,-1,-1,-1,-1,-1,-1],"loss_changes":[3.739465E2,6.677655E1,2.541034E2,1.2268554E2,0E0,3.2429694E2,2.2893013E1,7.949149E1,2.057518E1,6.2838745E1,0E0,2.3520126E1,9.364525E0,0E0,1.6736479E1,3.0729725E1,2.8884247E1,1.2548104E2,2.3624329E1,4.681439E1,4.1541653E1,8.491905E0,1.4924477E1,0E0,0E0,0E0,0E0,0E0,0E0,0E0,0E0,0E0,0E0,0E0,0E0,0E0,0E0,0E0,0E0,0E0,0E0],"parents":[2147483647,0,0,1,1,2,2,3,3,5,5,6,6,7,7,8,8,9,9,11,11,12,12,14,14,15,15,16,16,17,17,18,18,19,19,20,20,21,21,22,22],"right_children":[2,4,6,8,-1,10,12,14,16,18,-1,20,22,-1,24,26,28,30,32,34,36,38,40,-1,-1,-1,-1,-1,-1,-1,-1,-1,-1,-1,-1,-1,-1,-1,-1,-1,-1],"split_conditions":[1.386E3,1E0,2.05E2,7.705698E3,5.6301363E-2,1E0,2.25E2,1.95E2,5.41E1,1.44E3,5.5771917E-2,3.104E2,2.35E2,-5.7266917E-2,1E0,1.364E3,1.5336292E6,1.438E3,2.9988E5,3.079E2,2.19E2,2.977E2,4.42E1,-6.634179E-2,3.725895E-2,1.8674593E-1,2.9093716E-2,1.711491E-2,5.3111535E-2,-3.140929E-2,1.13978565E-1,-5.709466E-2,-2.4894884E-2,6.064036E-2,-2.7325546E-2,3.5482112E-2,-1.0042288E-1,-5.0080318E-2,5.668814E-2,-8.44746E-2,4.868507E-2],"split_indices":[2,13,4,8,0,14,4,4,3,2,0,1,4,0,5,2,11,2,10,1,4,0,3,0,0,0,0,0,0,0,0,0,0,0,0,0,0,0,0,0,0],"split_type":[0,0,0,0,0,0,0,0,0,0,0,0,0,0,0,0,0,0,0,0,0,0,0,0,0,0,0,0,0,0,0,0,0,0,0,0,0,0,0,0,0],"sum_hessian":[1.5920156E3,5.509432E2,1.0410725E3,3.499591E2,2.0098404E2,7.6988837E2,2.7118408E2,1.1151877E2,2.3844035E2,6.784114E2,9.147699E1,2.0000317E2,7.118092E1,6.6778694E1,4.474007E1,1.2328494E1,2.2611186E2,1.6912637E2,5.0928503E2,7.9683495E1,1.2031968E2,6.449053E1,6.690387E0,3.3812642E0,4.1358807E1,4.931744E0,7.3967495E0,1.0514213E2,1.2096973E2,1.5369278E2,1.543359E1,4.4133405E2,6.795098E1,1.9051176E1,6.063232E1,1.15361145E2,4.9585323E0,1.1860745E0,6.3304462E1,2.5888243E0,4.1015625E0],"tree_param":{"num_deleted":"0","num_feature":"15","num_nodes":"41","size_leaf_vector":"1"}},{"base_weights":[-1.2053599E-2,6.4881516E-1,-3.481607E-1,3.6979917E-1,5.588718E-2,-6.9335616E-1,5.219078E-1,-7.7655828E-3,1.0308752E0,-9.457934E-1,5.541538E-2,3.695633E-1,9.109002E-1,-6.6350186E-1,5.5705823E-2,2.3710422E-1,5.6046225E-2,-9.9108243E-1,9.8892933E-1,4.8526075E-1,-9.968407E-2,3.609979E-1,1.085725E0,-4.6172395E-2,1.8446434E-2,-9.624001E-2,5.184874E-2,-5.303339E-2,-2.857394E-2,5.7157613E-2,2.7865851E-2,-9.286068E-2,2.7417487E-2,-8.475318E-2,4.456918E-2,5.9093904E-2,2.5237584E-2],"categories":[],"categories_nodes":[],"categories_segments":[],"categories_sizes":[],"default_left":[0,0,0,0,0,0,0,0,0,0,0,0,0,0,0,0,0,0,0,0,0,0,0,0,0,0,0,0,0,0,0,0,0,0,0,0,0],"id":31,"left_children":[1,3,5,7,-1,9,11,13,15,17,-1,19,21,23,-1,25,-1,27,29,31,-1,33,35,-1,-1,-1,-1,-1,-1,-1,-1,-1,-1,-1,-1,-1,-1],"loss_changes":[3.455714E2,6.821109E1,3.1009247E2,8.2458374E1,0E0,3.3703964E2,1.7056297E1,1.5614153E2,8.318008E0,5.7803406E1,0E0,5.9092373E1,7.4830093E0,3.628836E1,0E0,2.5347166E1,0E0,1.7910522E1,3.8359547E-1,3.1087502E1,0E0,2.469312E1,2.8477097E0,0E0,0E0,0E0,0E0,0E0,0E0,0E0,0E0,0E0,0E0,0E0,0E0,0E0,0E0],"parents":[2147483647,0,0,1,1,2,2,3,3,5,5,6,6,7,7,8,8,9,9,11,11,12,12,13,13,15,15,17,17,18,18,19,19,21,21,22,22],"right_children":[2,4,6,8,-1,10,12,14,16,18,-1,20,22,24,-1,26,-1,28,30,32,-1,34,36,-1,-1,-1,-1,-1,-1,-1,-1,-1,-1,-1,-1,-1,-1],"split_conditions":[1.386E3,1E0,2.05E2,1.1076E4,5.588718E-2,1E0,3.64826E5,1E0,1E0,1.0783E4,5.541538E-2,1.616E3,2.16E2,3.118E2,5.5705823E-2,6.03E1,5.6046225E-2,4.77E1,2.71138E5,2.06E2,-9.968407E-2,1.88E3,2.35E2,-4.6172395E-2,1.8446434E-2,-9.624001E-2,5.184874E-2,-5.303339E-2,-2.857394E-2,5.7157613E-2,2.7865851E-2,-9.286068E-2,2.7417487E-2,-8.475318E-2,4.456918E-2,5.9093904E-2,2.5237584E-2],"split_indices":[2,13,4,9,0,14,10,14,5,9,0,2,4,1,0,3,0,3,10,4,0,2,4,0,0,0,0,0,0,0,0,0,0,0,0,0,0],"split_type":[0,0,0,0,0,0,0,0,0,0,0,0,0,0,0,0,0,0,0,0,0,0,0,0,0,0,0,0,0,0,0,0,0,0,0,0,0],"sum_hessian":[1.5537512E3,5.2349725E2,1.0302539E3,3.293313E2,1.94166E2,7.37756E2,2.92498E2,2.102424E2,1.1908888E2,6.4750665E2,9.024931E1,2.1158368E2,8.091432E1,1.3294505E2,7.7297356E1,1.2503707E1,1.06585175E2,6.331727E2,1.4333912E1,2.0246619E2,9.11748E0,2.0258183E1,6.065614E1,1.0628907E2,2.6655977E1,2.9969926E0,9.506714E0,5.417958E2,9.1376976E1,9.345894E0,4.988018E0,4.564111E0,1.9790208E2,3.7039118E0,1.655427E1,5.1155422E1,9.500715E0],"tree_param":{"num_deleted":"0","num_feature":"15","num_nodes":"37","size_leaf_vector":"1"}},{"base_weights":[-1.0021833E-3,6.589356E-1,-3.5027447E-1,3.7709042E-1,5.5579033E-2,-6.8866634E-1,3.976619E-1,-1.1716912E-1,1.0451268E0,-9.3595296E-1,5.503288E-2,2.7827916E-1,1.0476305E0,-6.455161E-1,5.515291E-2,5.5312403E-2,3.7352407E-1,-5.2650607E-1,-1.0683126E0,4.9115774E-1,-1.9562519E-1,5.555999E-1,5.6910314E-2,-4.5278687E-2,1.8716557E-2,-7.7741295E-2,5.1427554E-2,2.7170558E-2,-4.129458E-2,-4.2569153E-2,-5.6361E-2,4.3329806E-3,4.119062E-2,1.0883825E-2,-9.579801E-2,-1.5827437E-4,4.9370285E-2],"categories":[],"categories_nodes":[],"categories_segments":[],"categories_sizes":[],"default_left":[0,0,0,0,0,0,0,0,0,0,0,0,0,0,0,0,0,0,0,0,0,0,0,0,0,0,0,0,0,0,0,0,0,0,0,0,0],"id":32,"left_children":[1,3,5,7,-1,9,11,13,15,17,-1,19,21,23,-1,-1,25,27,29,31,33,35,-1,-1,-1,-1,-1,-1,-1,-1,-1,-1,-1,-1,-1,-1,-1],"loss_changes":[3.4454922E2,6.557956E1,2.4766792E2,1.058896E2,0E0,2.989737E2,2.3384052E1,1.1998853E2,5.1825256E0,3.1527954E1,0E0,2.623848E1,1.4615173E0,3.4748062E1,0E0,0E0,1.7869455E1,4.741596E1,4.746155E0,2.4027409E1,5.8035973E1,2.2369087E0,0E0,0E0,0E0,0E0,0E0,0E0,0E0,0E0,0E0,0E0,0E0,0E0,0E0,0E0,0E0],"parents":[2147483647,0,0,1,1,2,2,3,3,5,5,6,6,7,7,8,8,9,9,11,11,12,12,13,13,16,16,17,17,18,18,19,19,20,20,21,21],"right_children":[2,4,6,8,-1,10,12,14,16,18,-1,20,22,24,-1,-1,26,28,30,32,34,36,-1,-1,-1,-1,-1,-1,-1,-1,-1,-1,-1,-1,-1,-1,-1],"split_conditions":[1.386E3,1E0,2.02E2,1.1076E4,5.5579033E-2,1E0,1.6484411E6,1E0,1E0,1.44E3,5.503288E-2,3.91E1,9.4E0,3.118E2,5.515291E-2,5.5312403E-2,6.03E1,9.1E0,2.92E1,2.14E2,1.476E3,1.489E3,5.6910314E-2,-4.5278687E-2,1.8716557E-2,-7.7741295E-2,5.1427554E-2,2.7170558E-2,-4.129458E-2,-4.2569153E-2,-5.6361E-2,4.3329806E-3,4.119062E-2,1.0883825E-2,-9.579801E-2,-1.5827437E-4,4.9370285E-2],"split_indices":[2,13,4,9,0,14,11,14,6,2,0,3,7,1,0,0,3,7,3,4,2,2,0,0,0,0,0,0,0,0,0,0,0,0,0,0,0],"split_type":[0,0,0,0,0,0,0,0,0,0,0,0,0,0,0,0,0,0,0,0,0,0,0,0,0,0,0,0,0,0,0,0,0,0,0,0,0],"sum_hessian":[1.4928022E3,5.1632935E2,9.764729E2,3.1932846E2,1.9700087E2,6.723556E2,3.041173E2,1.8400984E2,1.353186E2,5.911367E2,8.121884E1,2.58133E2,4.5984325E1,1.2873834E2,5.5271503E1,1.2343763E2,1.1880979E1,1.4562677E2,4.4550995E2,1.780957E2,8.0037285E1,8.258126E0,3.77262E1,1.02669914E2,2.606843E1,2.664173E0,9.216805E0,3.166175E1,1.1396502E2,9.844264E1,3.470673E2,8.093802E1,9.715769E1,6.5237724E1,1.479956E1,4.032569E0,4.2255573E0],"tree_param":{"num_deleted":"0","num_feature":"15","num_nodes":"37","size_leaf_vector":"1"}},{"base_weights":[3.5685465E-2,-4.5062307E-1,4.5740312E-1,-7.9857796E-1,3.2098106E-1,2.6682326E-1,5.520305E-2,-1.0613453E0,5.4475326E-2,4.4409862E-1,-8.500638E-2,-9.53915E-2,1.016103E0,-5.602322E-2,-7.406171E-1,4.842855E-1,-7.375621E-2,-4.2406255E-1,5.4909416E-2,1.067875E0,5.05701E-1,1.3591294E-1,-5.7707805E-2,4.585147E-2,1.54255275E-2,2.0149885E-2,-3.7088625E-2,4.3646555E-2,5.4842252E-2,-7.996773E-2,5.389551E-2],"categories":[],"categories_nodes":[],"categories_segments":[],"categories_sizes":[],"default_left":[0,0,0,0,0,0,0,0,0,0,0,0,0,0,0,0,0,0,0,0,0,0,0,0,0,0,0,0,0,0,0],"id":33,"left_children":[1,3,5,7,9,11,-1,13,-1,15,-1,17,19,-1,21,23,-1,25,-1,27,29,-1,-1,-1,-1,-1,-1,-1,-1,-1,-1],"loss_changes":[3.0541266E2,1.8595868E2,9.799226E1,2.3780356E2,5.4424126E1,1.6763312E2,0E0,7.11911E0,0E0,1.645544E1,0E0,1.640724E2,4.7779846E0,0E0,1.0068529E2,1.4980259E1,0E0,8.641384E1,0E0,6.93512E-2,2.63367E1,0E0,0E0,0E0,0E0,0E0,0E0,0E0,0E0,0E0,0E0],"parents":[2147483647,0,0,1,1,2,2,3,3,4,4,5,5,7,7,9,9,11,11,12,12,14,14,15,15,17,17,19,19,20,20],"right_children":[2,4,6,8,10,12,-1,14,-1,16,-1,18,20,-1,22,24,-1,26,-1,28,30,-1,-1,-1,-1,-1,-1,-1,-1,-1,-1],"split_conditions":[4.43E1,2.03E2,1E0,1E0,4.14E1,1.0783E4,5.520305E-2,1.79E2,5.4475326E-2,6.4034873E3,-8.500638E-2,1E0,1E0,-5.602322E-2,1.8E2,3.086E2,-7.375621E-2,6.841268E3,5.4909416E-2,1.1076E4,1.22664E4,1.3591294E-1,-5.7707805E-2,4.585147E-2,1.54255275E-2,2.0149885E-2,-3.7088625E-2,4.3646555E-2,5.4842252E-2,-7.996773E-2,5.389551E-2],"split_indices":[3,4,13,14,3,9,0,4,0,8,0,14,6,0,4,1,0,8,0,9,9,0,0,0,0,0,0,0,0,0,0],"split_type":[0,0,0,0,0,0,0,0,0,0,0,0,0,0,0,0,0,0,0,0,0,0,0,0,0,0,0,0,0,0,0],"sum_hessian":[1.4871959E3,6.906716E2,7.9652435E2,4.7598926E2,2.1468233E2,6.163031E2,1.8022125E2,4.1822253E2,5.7766747E1,2.0309113E2,1.1591202E1,4.1605002E2,2.0025305E2,3.5102527E2,6.719724E1,1.9965813E2,3.4330049E0,3.2672568E2,8.9324356E1,1.8081961E2,1.9433441E1,6.580897E0,6.061635E1,5.645453E1,1.432036E2,9.06022E1,2.3612347E2,2.7422277E1,1.5339734E2,3.769836E0,1.5663606E1],"tree_param":{"num_deleted":"0","num_feature":"15","num_nodes":"31","size_leaf_vector":"1"}},{"base_weights":[3.355959E-2,6.568982E-1,-2.9460368E-1,4.0968114E-1,5.4973163E-2,-6.0925466E-1,2.2788094E-1,-3.6616825E-2,1.014001E0,5.1279243E-2,-7.132295E-1,1.1040199E-1,5.3986408E-2,-6.305726E-1,5.345871E-2,5.421899E-2,5.1635575E-1,-8.496392E-1,7.184081E-1,1.8208664E-2,1.0217863E0,-4.1506626E-2,2.661783E-2,-7.210806E-2,5.2551072E-2,-1.853237E-2,-5.1577207E-2,1.3839552E-2,5.1520366E-2,-6.589265E-2,7.6211034E-3,3.2079592E-2,5.4714758E-2],"categories":[],"categories_nodes":[],"categories_segments":[],"categories_sizes":[],"default_left":[0,0,0,0,0,0,0,0,0,0,0,0,0,0,0,0,0,0,0,0,0,0,0,0,0,0,0,0,0,0,0,0,0],"id":34,"left_children":[1,3,5,7,-1,9,11,13,15,-1,17,19,-1,21,-1,-1,23,25,27,29,31,-1,-1,-1,-1,-1,-1,-1,-1,-1,-1,-1,-1],"loss_changes":[2.899361E2,5.30318E1,1.5280342E2,8.505543E1,0E0,9.9296005E1,3.4883E1,1.203966E2,4.13118E0,0E0,1.0719327E2,2.5901537E1,0E0,2.8108871E1,0E0,0E0,2.089275E1,4.3074127E1,6.331209E0,5.0618774E1,7.8645706E-2,0E0,0E0,0E0,0E0,0E0,0E0,0E0,0E0,0E0,0E0,0E0,0E0],"parents":[2147483647,0,0,1,1,2,2,3,3,5,5,6,6,7,7,8,8,10,10,11,11,13,13,16,16,17,17,18,18,19,19,20,20],"right_children":[2,4,6,8,-1,10,12,14,16,-1,18,20,-1,22,-1,-1,24,26,28,30,32,-1,-1,-1,-1,-1,-1,-1,-1,-1,-1,-1,-1],"split_conditions":[1.386E3,1E0,2.90411E5,1.5336292E6,5.4973163E-2,3.5364385E3,1.6484411E6,8.969059E3,1E0,5.1279243E-2,8.357631E3,2.261E3,5.3986408E-2,2.7264E5,5.345871E-2,5.421899E-2,1.22664E4,1.44E3,8.969059E3,5.1632E3,4.09123E5,-4.1506626E-2,2.661783E-2,-7.210806E-2,5.2551072E-2,-1.853237E-2,-5.1577207E-2,1.3839552E-2,5.1520366E-2,-6.589265E-2,7.6211034E-3,3.2079592E-2,5.4714758E-2],"split_indices":[2,13,10,11,0,8,11,8,6,0,8,2,0,10,0,0,9,2,8,9,10,0,0,0,0,0,0,0,0,0,0,0,0],"split_type":[0,0,0,0,0,0,0,0,0,0,0,0,0,0,0,0,0,0,0,0,0,0,0,0,0,0,0,0,0,0,0,0,0],"sum_hessian":[1.4154406E3,4.878255E2,9.2761505E2,3.1422498E2,1.7360052E2,5.788523E2,3.4876276E2,1.8128389E2,1.3294107E2,3.4083256E1,5.4476904E2,3.0748663E2,4.1276134E1,1.1821603E2,6.3067863E1,1.15436584E2,1.750449E1,4.9774887E2,4.702014E1,2.8016577E2,2.7320879E1,1.01145515E2,1.7070505E1,3.3898654E0,1.4114624E1,1.3783623E2,3.5991266E2,2.0247753E1,2.6772387E1,2.476976E1,2.55396E2,5.953357E0,2.1367521E1],"tree_param":{"num_deleted":"0","num_feature":"15","num_nodes":"33","size_leaf_vector":"1"}},{"base_weights":[5.9700277E-2,-3.7295642E-1,4.5050758E-1,-8.058026E-1,2.5414917E-1,1.4253925E-1,8.3709055E-1,-9.990138E-1,5.336949E-2,3.4042248E-1,-7.9488866E-2,-2.708302E-1,9.8081E-1,9.5289093E-1,1.4626606E-1,2.8842986E-1,-1.0349154E0,2.6148317E0,2.7063525E-1,-6.8101007E-1,5.4220315E-2,-6.550336E-3,1.0191144E0,8.2680064E-1,2.6254036E0,-5.538237E-2,9.258245E-1,-4.9935535E-2,4.950089E-2,-3.1968642E-2,-5.5793222E-2,1.7961812E-1,-3.581562E-2,-2.4052477E-2,2.3895826E-2,8.178046E-3,-4.8232652E-2,-8.72975E-2,4.6144374E-2,2.2544604E-2,5.1470216E-2,4.895399E-2,-6.5079047E-3,1.8949242E-1,3.9300475E-2,-6.1968546E-2,5.211824E-2],"categories":[],"categories_nodes":[],"categories_segments":[],"categories_sizes":[],"default_left":[0,0,0,0,0,0,0,0,0,0,0,0,0,0,0,0,0,0,0,0,0,0,0,0,0,0,0,0,0,0,0,0,0,0,0,0,0,0,0,0,0,0,0,0,0,0,0],"id":35,"left_children":[1,3,5,7,9,11,13,15,-1,17,-1,19,21,23,25,27,29,31,33,35,-1,37,39,41,43,-1,45,-1,-1,-1,-1,-1,-1,-1,-1,-1,-1,-1,-1,-1,-1,-1,-1,-1,-1,-1,-1],"loss_changes":[2.3879999E2,1.8216211E2,8.82162E1,1.446903E2,4.4209587E1,1.437859E2,2.616301E1,1.6949707E1,0E0,4.1046036E1,0E0,1.5537422E2,5.1882324E0,5.7174377E1,4.8319645E1,1.0520725E1,1.051532E1,2.7698265E1,4.0170517E1,5.14609E1,0E0,1.148944E1,3.070526E-1,3.8473175E1,3.8291107E1,0E0,8.957571E0,0E0,0E0,0E0,0E0,0E0,0E0,0E0,0E0,0E0,0E0,0E0,0E0,0E0,0E0,0E0,0E0,0E0,0E0,0E0,0E0],"parents":[2147483647,0,0,1,1,2,2,3,3,4,4,5,5,6,6,7,7,9,9,11,11,12,12,13,13,14,14,15,15,16,16,17,17,18,18,19,19,21,21,22,22,23,23,24,24,26,26],"right_children":[2,4,6,8,10,12,14,16,-1,18,-1,20,22,24,26,28,30,32,34,36,-1,38,40,42,44,-1,46,-1,-1,-1,-1,-1,-1,-1,-1,-1,-1,-1,-1,-1,-1,-1,-1,-1,-1,-1,-1],"split_conditions":[4.43E1,2.9988E5,3.016E2,1E0,6.4034873E3,1.0783E4,1.424E3,1.378E3,5.336949E-2,3.01712E5,-7.9488866E-2,1E0,1.5336292E6,1.419E3,1.3712614E6,3.026E2,5.070091E3,3.093E2,2.03E2,6.8172354E3,5.4220315E-2,3.009E2,9.2E0,1.382E3,4.5276E3,-5.538237E-2,1.437E3,-4.9935535E-2,4.950089E-2,-3.1968642E-2,-5.5793222E-2,1.7961812E-1,-3.581562E-2,-2.4052477E-2,2.3895826E-2,8.178046E-3,-4.8232652E-2,-8.72975E-2,4.6144374E-2,2.2544604E-2,5.1470216E-2,4.895399E-2,-6.5079047E-3,1.8949242E-1,3.9300475E-2,-6.1968546E-2,5.211824E-2],"split_indices":[3,10,0,14,8,9,2,2,0,10,0,14,11,2,11,0,8,1,4,8,0,0,7,2,9,0,2,0,0,0,0,0,0,0,0,0,0,0,0,0,0,0,0,0,0,0,0],"split_type":[0,0,0,0,0,0,0,0,0,0,0,0,0,0,0,0,0,0,0,0,0,0,0,0,0,0,0,0,0,0,0,0,0,0,0,0,0,0,0,0,0,0,0,0,0,0,0],"sum_hessian":[1.4103105E3,6.6934015E2,7.409704E2,3.958371E2,2.7350305E2,4.1318137E2,3.2778903E2,3.592489E2,3.65882E1,2.620573E2,1.1445713E1,2.771765E2,1.3600484E2,2.804062E2,4.7382824E1,9.555414E0,3.4969348E2,6.715825E0,2.553415E2,2.1315877E2,6.401776E1,5.1101913E0,1.3089464E2,2.6213803E2,1.8268166E1,1.800349E1,2.9379333E1,3.2215762E0,6.333838E0,6.091951E1,2.88774E2,5.131546E0,1.5842793E0,5.4906788E1,2.0043472E2,5.3696434E1,1.5946234E2,1.4737101E0,3.636481E0,3.1253777E0,1.27769264E2,2.2613109E2,3.6006947E1,1.053715E1,7.7310147E0,1.0084629E0,2.837087E1],"tree_param":{"num_deleted":"0","num_feature":"15","num_nodes":"47","size_leaf_vector":"1"}},{"base_weights":[7.2791353E-3,-4.5087853E-1,3.9849222E-1,-6.035884E-1,5.4302465E-2,1.9848666E-1,5.4348797E-2,-9.8898315E-1,-4.7546187E-3,-1.5607463E-1,9.0586185E-1,-1.0279773E0,4.894341E-2,1.2266816E-1,-9.333142E-2,-4.5546266E-1,5.396528E-2,2.5944075E-1,1.0263263E0,-3.0750602E-2,-5.5672962E-2,1.1178032E-1,1.6035697E-3,2.7509122E-3,-5.83125E-2,-5.783212E-2,5.3266753E-2,1.8911246E-2,5.372109E-2],"categories":[],"categories_nodes":[],"categories_segments":[],"categories_sizes":[],"default_left":[0,0,0,0,0,0,0,0,0,0,0,0,0,0,0,0,0,0,0,0,0,0,0,0,0,0,0,0,0],"id":36,"left_children":[1,3,5,7,-1,9,-1,11,13,15,17,19,-1,21,-1,23,-1,25,27,-1,-1,-1,-1,-1,-1,-1,-1,-1,-1],"loss_changes":[2.3822519E2,1.4433722E2,9.850462E1,1.2865831E2,0E0,1.3978113E2,0E0,2.7034058E1,5.2257713E1,1.3797556E2,1.4220703E1,1.1073608E1,0E0,3.9399204E1,0E0,1.08885376E2,0E0,3.610974E1,4.471161E0,0E0,0E0,0E0,0E0,0E0,0E0,0E0,0E0,0E0,0E0],"parents":[2147483647,0,0,1,1,2,2,3,3,5,5,7,7,8,8,9,9,10,10,11,11,13,13,15,15,17,17,18,18],"right_children":[2,4,6,8,-1,10,-1,12,14,16,18,20,-1,22,-1,24,-1,26,28,-1,-1,-1,-1,-1,-1,-1,-1,-1,-1],"split_conditions":[4.43E1,1E0,1E0,2.9988E5,5.4302465E-2,1.05549E4,5.4348797E-2,1E0,8.6052E3,1E0,1E0,5.070091E3,4.894341E-2,3.01712E5,-9.333142E-2,4.87E1,5.396528E-2,1.22664E4,1.5336292E6,-3.0750602E-2,-5.5672962E-2,1.1178032E-1,1.6035697E-3,2.7509122E-3,-5.83125E-2,-5.783212E-2,5.3266753E-2,1.8911246E-2,5.372109E-2],"split_indices":[3,14,13,10,0,9,0,13,9,14,5,8,0,10,0,3,0,9,11,0,0,0,0,0,0,0,0,0,0],"split_type":[0,0,0,0,0,0,0,0,0,0,0,0,0,0,0,0,0,0,0,0,0,0,0,0,0,0,0,0,0],"sum_hessian":[1.3271029E3,6.111823E2,7.159206E2,5.5649585E2,5.4686424E1,5.557598E2,1.6016078E2,3.3819217E2,2.183037E2,3.7072086E2,1.8503894E2,3.3208923E2,6.102934E0,2.051947E2,1.3108984E1,2.9891232E2,7.180854E1,2.9561794E1,1.5547716E2,5.8357452E1,2.7373178E2,7.462994E0,1.9773172E2,1.745062E2,1.24406136E2,1.0563983E1,1.899781E1,1.13532E1,1.4412395E2],"tree_param":{"num_deleted":"0","num_feature":"15","num_nodes":"29","size_leaf_vector":"1"}},{"base_weights":[-3.2948032E-2,-1.9021492E-1,5.412156E-2,-3.9081112E-1,5.4443598E-2,-9.9650097E-1,2.5366452E-1,-1.0115718E0,4.5248054E-2,-3.7807927E-2,9.578561E-1,-4.2388197E-2,-5.6181975E-2,-4.207061E-2,1.2197065E-2,9.264413E-3,5.249666E-2],"categories":[],"categories_nodes":[],"categories_segments":[],"categories_sizes":[],"default_left":[0,0,0,0,0,0,0,0,0,0,0,0,0,0,0,0,0],"id":37,"left_children":[1,3,-1,5,-1,7,9,11,-1,13,15,-1,-1,-1,-1,-1,-1],"loss_changes":[2.2509471E2,2.8894446E2,0E0,3.7997705E2,0E0,1.5291931E1,9.693463E1,8.193268E0,0E0,7.602123E1,9.639236E0,0E0,0E0,0E0,0E0,0E0,0E0],"parents":[2147483647,0,0,1,1,3,3,5,5,6,6,7,7,9,9,10,10],"right_children":[2,4,-1,6,-1,8,10,12,-1,14,16,-1,-1,-1,-1,-1,-1],"split_conditions":[1E0,1E0,5.412156E-2,1.79E2,5.4443598E-2,1.1076E4,1.0783E4,1E0,4.5248054E-2,2.03E2,1E0,-4.2388197E-2,-5.6181975E-2,-4.207061E-2,1.2197065E-2,9.264413E-3,5.249666E-2],"split_indices":[13,14,0,4,0,9,9,5,0,4,5,0,0,0,0,0,0],"split_type":[0,0,0,0,0,0,0,0,0,0,0,0,0,0,0,0,0],"sum_hessian":[1.2810592E3,1.1234796E3,1.5757957E2,9.717732E2,1.5170645E2,5.006794E2,4.7109378E2,4.9720657E2,3.4728134E0,3.3385425E2,1.3723953E2,2.054571E2,2.9174948E2,8.615028E1,2.4770395E2,1.4935586E1,1.22303955E2],"tree_param":{"num_deleted":"0","num_feature":"15","num_nodes":"17","size_leaf_vector":"1"}},{"base_weights":[3.5660725E-2,4.338564E-1,-3.9069548E-1,2.4843284E-1,5.3888895E-2,-5.505592E-1,5.3816E-2,-1.3836281E-2,1.0167345E0,-1.0014884E0,5.0698783E-2,-2.531745E-1,5.3598534E-2,4.486514E-1,5.4523773E-2,-5.728112E-1,-5.451427E-2,-6.1873328E-2,1.6253273E-1,-3.265388E-2,2.200457E-2,-7.536978E-2,5.11585E-2,-5.4047167E-2,1.8795069E-1,1.3625544E-1,3.6250395E-3],"categories":[],"categories_nodes":[],"categories_segments":[],"categories_sizes":[],"default_left":[0,0,0,0,0,0,0,0,0,0,0,0,0,0,0,0,0,0,0,0,0,0,0,0,0,0,0],"id":38,"left_children":[1,3,5,7,-1,9,-1,11,13,15,17,19,-1,21,-1,23,-1,-1,25,-1,-1,-1,-1,-1,-1,-1,-1],"loss_changes":[2.1243701E2,7.697984E1,1.4232068E2,1.0149533E2,0E0,1.4797754E2,0E0,9.809986E1,4.880356E0,1.1245178E1,3.402337E1,8.602708E1,0E0,2.0001642E1,0E0,1.264804E2,0E0,0E0,4.984593E1,0E0,0E0,0E0,0E0,0E0,0E0,0E0,0E0],"parents":[2147483647,0,0,1,1,2,2,3,3,5,5,7,7,8,8,9,9,10,10,11,11,13,13,15,15,18,18],"right_children":[2,4,6,8,-1,10,-1,12,14,16,18,20,-1,22,-1,24,-1,-1,26,-1,-1,-1,-1,-1,-1,-1,-1],"split_conditions":[1.447E3,1E0,1E0,1.1076E4,5.3888895E-2,2.9988E5,5.3816E-2,1E0,1E0,5.070091E3,9.1199725E5,1.419E3,5.3598534E-2,6.03E1,5.4523773E-2,5.046162E3,-5.451427E-2,-6.1873328E-2,9.181574E5,-3.265388E-2,2.200457E-2,-7.536978E-2,5.11585E-2,-5.4047167E-2,1.8795069E-1,1.3625544E-1,3.6250395E-3],"split_indices":[2,13,14,9,0,10,0,14,5,8,11,2,0,3,0,8,0,0,11,0,0,0,0,0,0,0,0],"split_type":[0,0,0,0,0,0,0,0,0,0,0,0,0,0,0,0,0,0,0,0,0,0,0,0,0,0,0],"sum_hessian":[1.2493003E3,6.459744E2,6.0332587E2,5.0262454E2,1.433499E2,5.4460394E2,5.8721924E1,3.7544412E2,1.2718043E2,3.108261E2,2.3377783E2,3.0826242E2,6.7181694E1,1.5426022E1,1.117544E2,5.461534E1,2.562108E2,1.7870485E1,2.1590735E2,1.9553062E2,1.127318E2,3.1335516E0,1.2292469E1,4.955312E1,5.0622206E0,6.3347025E0,2.0957265E2],"tree_param":{"num_deleted":"0","num_feature":"15","num_nodes":"27","size_leaf_vector":"1"}},{"base_weights":[6.1764374E-2,-3.429536E-1,4.229846E-1,-8.0667883E-1,2.3914436E-1,2.434333E-1,5.3613972E-2,-1.002451E0,5.218072E-2,3.213111E-1,-7.3848546E-2,-3.952758E-2,9.383452E-1,-5.55928E-1,-5.493197E-2,1.9287218E0,2.589354E-1,-2.944445E-1,5.331258E-2,5.35915E-1,1.023506E0,-5.3737372E-2,1.7399484E-1,1.3564064E-1,-4.1462265E-2,-3.1400573E-2,2.3500597E-2,7.921363E-3,-4.712624E-2,-7.594087E-2,4.178028E-2,3.1545594E-2,5.4337848E-2],"categories":[],"categories_nodes":[],"categories_segments":[],"categories_sizes":[],"default_left":[0,0,0,0,0,0,0,0,0,0,0,0,0,0,0,0,0,0,0,0,0,0,0,0,0,0,0,0,0,0,0,0,0],"id":39,"left_children":[1,3,5,7,9,11,-1,13,-1,15,-1,17,19,21,-1,23,25,27,-1,29,31,-1,-1,-1,-1,-1,-1,-1,-1,-1,-1,-1,-1],"loss_changes":[1.8044798E2,1.573469E2,7.576561E1,1.1851004E2,3.698435E1,1.0074368E2,0E0,1.2006226E1,0E0,2.435703E1,0E0,1.0317707E2,4.531845E0,1.16994934E2,0E0,2.1940811E1,4.519008E1,8.741631E1,0E0,1.8504972E1,2.3251953E0,0E0,0E0,0E0,0E0,0E0,0E0,0E0,0E0,0E0,0E0,0E0,0E0],"parents":[2147483647,0,0,1,1,2,2,3,3,4,4,5,5,7,7,9,9,11,11,12,12,13,13,15,15,16,16,17,17,19,19,20,20],"right_children":[2,4,6,8,10,12,-1,14,-1,16,-1,18,20,22,-1,24,26,28,-1,30,32,-1,-1,-1,-1,-1,-1,-1,-1,-1,-1,-1,-1],"split_conditions":[4.43E1,2.9988E5,1E0,1E0,6.4034873E3,1.0783E4,5.3613972E-2,5.070091E3,5.218072E-2,3.01712E5,-7.3848546E-2,1E0,1E0,5.046162E3,-5.493197E-2,2.9E1,2.03E2,4.87E1,5.331258E-2,8.227789E3,1.1076E4,-5.3737372E-2,1.7399484E-1,1.3564064E-1,-4.1462265E-2,-3.1400573E-2,2.3500597E-2,7.921363E-3,-4.712624E-2,-7.594087E-2,4.178028E-2,3.1545594E-2,5.4337848E-2],"split_indices":[3,10,13,14,8,9,0,8,0,10,0,14,5,8,0,3,4,3,0,8,9,0,0,0,0,0,0,0,0,0,0,0,0],"split_type":[0,0,0,0,0,0,0,0,0,0,0,0,0,0,0,0,0,0,0,0,0,0,0,0,0,0,0,0,0,0,0,0,0],"sum_hessian":[1.2323268E3,5.8119525E2,6.511316E2,3.2327454E2,2.5792072E2,5.111553E2,1.3997627E2,2.9275726E2,3.0517262E1,2.469115E2,1.1009228E1,3.6391574E2,1.4723956E2,5.3088943E1,2.3966832E2,8.105784E0,2.3880571E2,2.9633493E2,6.758081E1,2.6990078E1,1.202495E2,4.7691708E1,5.3972383E0,6.3241887E0,1.7815961E0,4.552668E1,1.9327904E2,1.7488362E2,1.2145131E2,2.9177196E0,2.4072357E1,1.8208042E1,1.0204145E2],"tree_param":{"num_deleted":"0","num_feature":"15","num_nodes":"33","size_leaf_vector":"1"}},{"base_weights":[9.730126E-3,-1.2831233E-1,5.375086E-2,-2.998995E-1,5.3459343E-2,-7.223986E-1,4.4055182E-1,-8.599959E-1,8.591779E-1,3.116888E-1,9.8059577E-1,-3.6095034E-2,-5.6453645E-2,-7.981544E-2,5.0773837E-2,2.0463737E-2,-9.824204E-3,7.710804E-3,5.342121E-2],"categories":[],"categories_nodes":[],"categories_segments":[],"categories_sizes":[],"default_left":[0,0,0,0,0,0,0,0,0,0,0,0,0,0,0,0,0,0,0],"id":40,"left_children":[1,3,-1,5,-1,7,9,11,13,15,17,-1,-1,-1,-1,-1,-1,-1,-1],"loss_changes":[1.7530672E2,2.171845E2,0E0,2.8936032E2,0E0,1.288404E2,2.3096947E1,1.9325867E1,1.9894615E1,1.3616938E1,4.5034256E0,0E0,0E0,0E0,0E0,0E0,0E0,0E0,0E0],"parents":[2147483647,0,0,1,1,3,3,5,5,6,6,7,7,8,8,9,9,10,10],"right_children":[2,4,-1,6,-1,8,10,12,14,16,18,-1,-1,-1,-1,-1,-1,-1,-1],"split_conditions":[1E0,1E0,5.375086E-2,2.03E2,5.3459343E-2,1.0783E4,1.1076E4,5.2E3,1E0,1.4264739E6,1E0,-3.6095034E-2,-5.6453645E-2,-7.981544E-2,5.0773837E-2,2.0463737E-2,-9.824204E-3,7.710804E-3,5.342121E-2],"split_indices":[14,13,0,4,0,9,9,9,5,11,5,0,0,0,0,0,0,0,0],"split_type":[0,0,0,0,0,0,0,0,0,0,0,0,0,0,0,0,0,0,0],"sum_hessian":[1.1901798E3,1.0544246E3,1.3575531E2,9.2292944E2,1.3149507E2,5.876453E2,3.3528412E2,5.4103174E2,4.6613598E1,2.719659E2,6.3318203E1,3.599709E2,1.8106085E2,2.238177E0,4.437542E1,2.2831628E2,4.364963E1,6.34777E0,5.6970432E1],"tree_param":{"num_deleted":"0","num_feature":"15","num_nodes":"19","size_leaf_vector":"1"}},{"base_weights":[3.0032452E-2,4.2370802E-1,-3.998664E-1,1.2046433E-1,8.274047E-1,-8.046774E-1,1.0591535E-1,-2.0209104E-1,8.96265E-1,9.99143E-1,2.1961127E-1,-9.8029417E-1,5.1561683E-2,-7.8985465E-1,2.0962662E-1,-5.3034276E-1,5.2574854E-2,9.8132116E-1,1.288647E-1,8.2758206E-1,2.2576907E0,5.877781E-1,-4.5715237E-1,-5.155688E-1,-5.3901788E-2,4.744755E-2,-1.2970308E0,7.3369133E-1,2.9735709E-2,-3.838939E-2,6.147159E-2,2.5234703E-2,5.2074134E-2,-6.705116E-2,4.778921E-2,4.8778307E-2,1.1574464E-2,3.8198646E-2,1.6620688E-1,4.022625E-2,9.927446E-4,-5.6961525E-2,4.1316275E-2,-5.3204168E-2,1.4399026E-1,-9.1166876E-2,3.0250037E-2,5.174122E-2,-3.6493674E-2,-1.4694643E-2,3.7845343E-2],"categories":[],"categories_nodes":[],"categories_segments":[],"categories_sizes":[],"default_left":[0,0,0,0,0,0,0,0,0,0,0,0,0,0,0,0,0,0,0,0,0,0,0,0,0,0,0,0,0,0,0,0,0,0,0,0,0,0,0,0,0,0,0,0,0,0,0,0,0,0,0],"id":41,"left_children":[1,3,5,7,9,11,13,15,17,19,21,23,-1,25,27,29,-1,31,33,35,37,39,41,43,-1,-1,45,47,49,-1,-1,-1,-1,-1,-1,-1,-1,-1,-1,-1,-1,-1,-1,-1,-1,-1,-1,-1,-1,-1,-1],"loss_changes":[1.9541676E2,7.368069E1,1.1310033E2,8.65973E1,2.6748001E1,9.9898575E1,2.3044348E1,1.012647E2,6.505104E0,4.1564484E1,1.4769869E1,1.218277E1,0E0,2.39515E1,2.086049E1,8.226375E1,0E0,2.0926743E0,1.500263E1,1.5529076E1,3.497902E1,4.6778316E0,1.938532E1,9.739564E1,0E0,0E0,2.1493073E1,2.568369E1,3.927449E1,0E0,0E0,0E0,0E0,0E0,0E0,0E0,0E0,0E0,0E0,0E0,0E0,0E0,0E0,0E0,0E0,0E0,0E0,0E0,0E0,0E0,0E0],"parents":[2147483647,0,0,1,1,2,2,3,3,4,4,5,5,6,6,7,7,8,8,9,9,10,10,11,11,13,13,14,14,15,15,17,17,18,18,19,19,20,20,21,21,22,22,23,23,26,26,27,27,28,28],"right_children":[2,4,6,8,10,12,14,16,18,20,22,24,-1,26,28,30,-1,32,34,36,38,40,42,44,-1,-1,46,48,50,-1,-1,-1,-1,-1,-1,-1,-1,-1,-1,-1,-1,-1,-1,-1,-1,-1,-1,-1,-1,-1,-1],"split_conditions":[1.447E3,3.017E2,2.9988E5,1.0783E4,3.119E2,1E0,8.9E0,1E0,1E0,3.118E2,1.378E3,5.070091E3,5.1561683E-2,3.5364385E3,3.13071E5,1.438E3,5.2574854E-2,1.1076E4,1.22664E4,3.111E2,1E0,9.3E0,9.5232E3,5.046162E3,-5.3901788E-2,4.744755E-2,2.34E2,1.05E1,2.22E2,-3.838939E-2,6.147159E-2,2.5234703E-2,5.2074134E-2,-6.705116E-2,4.778921E-2,4.8778307E-2,1.1574464E-2,3.8198646E-2,1.6620688E-1,4.022625E-2,9.927446E-4,-5.6961525E-2,4.1316275E-2,-5.3204168E-2,1.4399026E-1,-9.1166876E-2,3.0250037E-2,5.174122E-2,-3.6493674E-2,-1.4694643E-2,3.7845343E-2],"split_indices":[2,0,10,9,1,14,7,14,6,1,2,8,0,8,10,2,0,9,9,1,6,7,9,8,0,0,4,7,4,0,0,0,0,0,0,0,0,0,0,0,0,0,0,0,0,0,0,0,0,0,0],"split_type":[0,0,0,0,0,0,0,0,0,0,0,0,0,0,0,0,0,0,0,0,0,0,0,0,0,0,0,0,0,0,0,0,0,0,0,0,0,0,0,0,0,0,0,0,0,0,0,0,0,0,0],"sum_hessian":[1.1526667E3,6.0168976E2,5.509769E2,3.44335E2,2.5735474E2,3.0570764E2,2.452693E2,2.437361E2,1.00598885E2,2.0015498E2,5.7199764E1,2.7944315E2,2.6264496E1,2.4763893E1,2.2050542E2,1.93615E2,5.0121098E1,9.031041E1,1.0288476E1,1.776024E2,2.2552588E1,3.7131374E1,2.0068388E1,4.9650063E1,2.2979309E2,5.39536E0,1.9368532E1,5.556191E1,1.649435E2,1.7109323E2,2.2521774E1,1.1173994E1,7.913641E1,3.4803257E0,6.8081503E0,1.4177036E2,3.583204E1,1.0109332E1,1.2443254E1,2.6573164E1,1.0558212E1,1.3177736E1,6.8906517E0,4.3335865E1,6.314197E0,1.52030945E1,4.165438E0,4.6323624E1,9.238287E0,1.1455602E2,5.038748E1],"tree_param":{"num_deleted":"0","num_feature":"15","num_nodes":"51","size_leaf_vector":"1"}},{"base_weights":[1.4846545E-2,-4.2203665E-1,3.8763607E-1,-5.5907744E-1,5.285401E-2,2.0337409E-1,5.302262E-2,-7.9644567E-1,3.8991907E-1,-1.2711404E-1,8.4957135E-1,-2.8721905E-1,-9.724018E-1,-1.0865569E-1,6.03954E-1,-4.019594E-1,5.2649915E-2,4.2433295E-1,9.577188E-1,-4.8546176E-2,8.360815E-2,2.015712E-2,-5.2090295E-2,3.6549587E-2,-7.200536E-2,3.6703122E-3,-5.1996082E-2,-2.658132E-2,3.7499618E-2,1.656999E-2,5.0443966E-2],"categories":[],"categories_nodes":[],"categories_segments":[],"categories_sizes":[],"default_left":[0,0,0,0,0,0,0,0,0,0,0,0,0,0,0,0,0,0,0,0,0,0,0,0,0,0,0,0,0,0,0],"id":42,